{"learner":{"attributes":{"best_iteration":"99","best_ntree_limit":"100","scikit_learn":"{\"n_estimators\": 100, \"objective\": \"reg:squarederror\", \"max_depth\": null, \"max_leaves\": null, \"max_bin\": null, \"grow_policy\": null, \"learning_rate\": null, \"verbosity\": null, \"booster\": null, \"tree_method\": null, \"gamma\": null, \"min_child_weight\": null, \"max_delta_step\": null, \"subsample\": null, \"sampling_method\": null, \"colsample_bytree\": null, \"colsample_bylevel\": null, \"colsample_bynode\": null, \"reg_alpha\": null, \"reg_lambda\": null, \"scale_pos_weight\": null, \"base_score\": null, \"missing\": NaN, \"num_parallel_tree\": null, \"random_state\": 42, \"n_jobs\": null, \"monotone_constraints\": null, \"interaction_constraints\": null, \"importance_type\": null, \"gpu_id\": null, \"validate_parameters\": null, \"predictor\": null, \"enable_categorical\": false, \"feature_types\": null, \"max_cat_to_onehot\": null, \"max_cat_threshold\": null, \"eval_metric\": null, \"early_stopping_rounds\": null, \"callbacks\": null, \"_estimator_type\": \"regressor\"}"},"feature_names":["Marke","Modell","Baujahr","Getriebe","Kilometerstand","Kraftstoffart","Verbrauch (l/100km)","Motorgröße (l)","Alter"],"feature_types":["int","int","int","int","int","int","float","float","int"],"gradient_booster":{"model":{"gbtree_model_param":{"num_parallel_tree":"1","num_trees":"100","size_leaf_vector":"0"},"tree_info":[0,0,0,0,0,0,0,0,0,0,0,0,0,0,0,0,0,0,0,0,0,0,0,0,0,0,0,0,0,0,0,0,0,0,0,0,0,0,0,0,0,0,0,0,0,0,0,0,0,0,0,0,0,0,0,0,0,0,0,0,0,0,0,0,0,0,0,0,0,0,0,0,0,0,0,0,0,0,0,0,0,0,0,0,0,0,0,0,0,0,0,0,0,0,0,0,0,0,0,0],"trees":[{"base_weights":[1.9324662E4,2.6458473E4,1.389685E4,2.0699494E4,3.442415E4,1.2369012E4,1.908475E4,1.8897998E4,3.1242225E4,3.0648066E4,5.6389723E4,1.1417967E4,1.6130332E4,1.6029226E4,2.3122434E4,1.5691125E4,2.1223256E4,2.8666754E4,5.182049E4,2.5004512E4,3.3832684E4,5.3600465E4,8.669726E4,8.066112E3,1.2376681E4,1.1976703E4,1.8450316E4,2.4499834E4,1.5723536E4,2.1385895E4,2.6902611E4,1.2879941E4,1.7548234E4,1.5651415E4,2.300469E4,2.3909033E4,3.4810777E4,3.4912832E4,5.9486473E4,2.0179373E4,2.6005988E4,3.2627568E4,3.9244008E4,4.698266E4,5.8391445E4,8.205472E4,1.4214673E5,4.3937188E3,8.656869E3,1.6519496E4,1.2035672E4,7.171129E3,1.2991702E4,1.7344996E4,2.1529379E4,2.1068707E4,2.5457338E4,1.4023078E4,1.6753068E4,2.5880225E4,2.0177668E4,2.791622E4,2.2375115E4,8.622674E3,1.3674971E4,1.4460297E4,1.8475773E4,1.1376808E4,1.7024922E4,2.4860293E4,2.0729945E4,1.6998662E4,2.6540713E4,2.7943879E4,3.948583E4,5.4973758E4,2.8959668E4,5.2907746E4,7.000896E4,3.974902E4,1.9396824E4,2.5933725E4,6.50064E4,3.3548973E4,2.9280652E4,4.313537E4,3.7626184E4,3.963099E4,5.002773E4,5.7156242E4,7.083096E4,1.1906449E5,7.746825E4,3.3289758E3,5.78863E3,1.1949359E4,8.262116E3,1.4451174E4,1.8925143E4,1.1261872E4,1.377774E4,8.717893E3,5.248437E3,1.4294905E4,1.1046436E4,1.8115873E4,1.4057029E4,2.2681977E4,2.0221691E4,1.9103713E4,1.3564475E4,1.7248014E4,1.1007677E4,2.4706025E4,3.0308523E4,2.0879549E4,1.4303564E4,2.49756E4,2.8757158E4,2.3944904E4,2.0668383E4],"categories":[],"categories_nodes":[],"categories_segments":[],"categories_sizes":[],"default_left":[1,1,1,1,1,1,1,1,1,1,1,1,1,1,1,1,1,1,1,1,1,1,1,1,1,1,1,1,1,1,1,1,1,1,1,1,1,1,1,1,1,1,1,1,1,1,0,1,1,1,1,1,1,1,1,0,0,1,1,1,1,1,1,0,0,0,0,0,0,0,0,0,0,0,0,0,0,0,0,0,0,0,0,0,0,0,0,0,0,0,0,0,0,0,0,0,0,0,0,0,0,0,0,0,0,0,0,0,0,0,0,0,0,0,0,0,0,0,0,0,0],"id":0,"left_children":[1,3,5,7,9,11,13,15,17,19,21,23,25,27,29,31,33,35,37,39,41,43,45,47,49,51,53,55,57,59,61,63,65,67,69,71,73,75,77,79,81,83,85,87,89,91,-1,93,95,97,99,101,103,105,107,-1,-1,109,111,113,115,117,119,-1,-1,-1,-1,-1,-1,-1,-1,-1,-1,-1,-1,-1,-1,-1,-1,-1,-1,-1,-1,-1,-1,-1,-1,-1,-1,-1,-1,-1,-1,-1,-1,-1,-1,-1,-1,-1,-1,-1,-1,-1,-1,-1,-1,-1,-1,-1,-1,-1,-1,-1,-1,-1,-1,-1,-1,-1,-1],"loss_changes":[3.0183197E12,1.5445587E12,3.5070725E11,3.7077333E11,1.170516E12,1.2217745E11,1.2387746E11,1.2421064E11,1.4966692E11,2.159385E11,1.7051104E11,8.76468E10,6.627957E10,1.4467334E10,2.788819E10,3.6443914E10,9.571218E10,7.332823E10,3.88812E10,2.0519584E10,4.8986325E10,5.7497092E10,3.2870892E10,1.3143802E10,2.9795025E10,1.1983913E10,1.4689763E10,1.1413914E8,9.462219E9,1.5637938E10,5.621088E9,9.35238E9,1.1839865E10,1.3591904E10,3.0433346E10,2.5609175E10,3.4370486E10,1.0470007E10,1.1248468E10,1.0760585E10,8.468824E9,1.8476958E10,7.1843185E9,1.5993668E10,1.2823036E10,1.827491E10,0E0,1.2342548E9,6.702727E9,7.74724E9,2.6292781E10,1.2449382E9,5.021237E9,8.013218E9,1.2972524E9,0E0,0E0,4.6221885E9,9.606463E9,2.5114378E9,9.39026E9,2.02172E9,1.8562253E8,0E0,0E0,0E0,0E0,0E0,0E0,0E0,0E0,0E0,0E0,0E0,0E0,0E0,0E0,0E0,0E0,0E0,0E0,0E0,0E0,0E0,0E0,0E0,0E0,0E0,0E0,0E0,0E0,0E0,0E0,0E0,0E0,0E0,0E0,0E0,0E0,0E0,0E0,0E0,0E0,0E0,0E0,0E0,0E0,0E0,0E0,0E0,0E0,0E0,0E0,0E0,0E0,0E0,0E0,0E0,0E0,0E0,0E0],"parents":[2147483647,0,0,1,1,2,2,3,3,4,4,5,5,6,6,7,7,8,8,9,9,10,10,11,11,12,12,13,13,14,14,15,15,16,16,17,17,18,18,19,19,20,20,21,21,22,22,23,23,24,24,25,25,26,26,27,27,28,28,29,29,30,30,31,31,32,32,33,33,34,34,35,35,36,36,37,37,38,38,39,39,40,40,41,41,42,42,43,43,44,44,45,45,47,47,48,48,49,49,50,50,51,51,52,52,53,53,54,54,57,57,58,58,59,59,60,60,61,61,62,62],"right_children":[2,4,6,8,10,12,14,16,18,20,22,24,26,28,30,32,34,36,38,40,42,44,46,48,50,52,54,56,58,60,62,64,66,68,70,72,74,76,78,80,82,84,86,88,90,92,-1,94,96,98,100,102,104,106,108,-1,-1,110,112,114,116,118,120,-1,-1,-1,-1,-1,-1,-1,-1,-1,-1,-1,-1,-1,-1,-1,-1,-1,-1,-1,-1,-1,-1,-1,-1,-1,-1,-1,-1,-1,-1,-1,-1,-1,-1,-1,-1,-1,-1,-1,-1,-1,-1,-1,-1,-1,-1,-1,-1,-1,-1,-1,-1,-1,-1,-1,-1,-1,-1],"split_conditions":[1.5E0,2.0185E3,2.0185E3,2.75E0,2.65E0,1.95E0,1.45E0,1.95E0,3.85E0,1.9E0,3.5E0,2.0155E3,2.0155E3,2.1E1,1.8E0,2.0165E3,2.0155E3,2.0165E3,2.0155E3,1.25E0,6.2799997E0,6.3E1,1.0940001E1,2.0125E3,1.5E0,2.0125E3,4.455E0,4.87E0,6.35E1,1.5E0,1.646E4,2.0135E3,1.25E0,2.0135E3,4.54735E4,2.0145E3,1.85E1,3.85625E4,2.0175E3,5E-1,1.9E2,4.5E0,7.4E1,9.5E0,1.835E2,2.95E1,4.2644023E4,2.0105E3,2.1E1,1.3E1,2.0175E3,1.371955E5,8.924E4,7.55635E4,3.49665E4,6.3206123E3,7.6372017E3,4.5E0,1.685E2,1.225E2,1.77E2,4.29E0,2.31235E4,2.5868022E3,4.102491E3,4.3380894E3,5.5427324E3,3.4130425E3,5.1074766E3,7.4580884E3,6.218984E3,5.0995986E3,7.9622144E3,8.383164E3,1.1845749E4,1.6492129E4,8.6879E3,1.5872324E4,2.100269E4,1.1924706E4,5.8190474E3,7.7801177E3,1.950192E4,1.0064692E4,8.784196E3,1.2940612E4,1.1287855E4,1.1889297E4,1.5008319E4,1.7146873E4,2.124929E4,3.5719348E4,2.3240477E4,9.986928E2,1.736589E3,3.5848079E3,2.478635E3,4.3353525E3,5.677543E3,3.3785618E3,4.1333223E3,2.615368E3,1.5745311E3,4.2884717E3,3.313931E3,5.434762E3,4.217109E3,6.8045933E3,6.066508E3,5.7311143E3,4.0693425E3,5.1744043E3,3.3023032E3,7.411808E3,9.092558E3,6.2638647E3,4.2910693E3,7.49268E3,8.627147E3,7.1834717E3,6.200515E3],"split_indices":[3,2,2,7,7,7,7,7,7,7,7,2,2,1,7,2,2,2,2,7,6,1,6,2,0,2,6,6,1,0,4,2,7,2,4,2,1,4,2,7,1,0,1,1,1,1,0,2,1,1,2,4,4,4,4,0,0,0,1,1,1,6,4,0,0,0,0,0,0,0,0,0,0,0,0,0,0,0,0,0,0,0,0,0,0,0,0,0,0,0,0,0,0,0,0,0,0,0,0,0,0,0,0,0,0,0,0,0,0,0,0,0,0,0,0,0,0,0,0,0,0],"split_type":[0,0,0,0,0,0,0,0,0,0,0,0,0,0,0,0,0,0,0,0,0,0,0,0,0,0,0,0,0,0,0,0,0,0,0,0,0,0,0,0,0,0,0,0,0,0,0,0,0,0,0,0,0,0,0,0,0,0,0,0,0,0,0,0,0,0,0,0,0,0,0,0,0,0,0,0,0,0,0,0,0,0,0,0,0,0,0,0,0,0,0,0,0,0,0,0,0,0,0,0,0,0,0,0,0,0,0,0,0,0,0,0,0,0,0,0,0,0,0,0,0],"sum_hessian":[7.7959E4,3.3684E4,4.4275E4,1.9552E4,1.4132E4,3.4205E4,1.007E4,1.6701E4,2.851E3,1.2061E4,2.071E3,2.7305E4,6.9E3,5.735E3,4.335E3,7.023E3,9.678E3,2.536E3,3.15E2,4.354E3,7.707E3,1.899E3,1.72E2,6.075E3,2.123E4,2.475E3,4.425E3,1.97E2,5.538E3,2.975E3,1.36E3,2.797E3,4.226E3,2.347E3,7.331E3,1.432E3,1.104E3,1E2,2.15E2,7.52E2,3.602E3,6.309E3,1.398E3,8.02E2,1.097E3,1.61E2,1.1E1,8.43E2,5.232E3,1.611E3,1.9619E4,4.33E2,2.042E3,3.261E3,1.164E3,4.8E1,1.49E2,2.094E3,3.444E3,6.26E2,2.349E3,1.107E3,2.53E2,4.42E2,2.355E3,9.8E2,3.246E3,5.73E2,1.774E3,4.032E3,3.299E3,3.97E2,1.035E3,4.5E2,6.54E2,2.1E1,7.9E1,1.36E2,7.9E1,2.7E1,7.25E2,3.597E3,5E0,4.94E3,1.369E3,4.03E2,9.95E2,2.39E2,5.63E2,1.003E3,9.4E1,1.5E1,1.46E2,4.8E2,3.63E2,5.57E2,4.675E3,8.7E2,7.41E2,1.359E4,6.029E3,2.38E2,1.95E2,1.219E3,8.23E2,2.638E3,6.23E2,6.1E2,5.54E2,1.7E2,1.924E3,3.169E3,2.75E2,5E2,1.26E2,2.096E3,2.53E2,2.53E2,8.54E2,1.25E2,1.28E2],"tree_param":{"num_deleted":"0","num_feature":"9","num_nodes":"121","size_leaf_vector":"0"}},{"base_weights":[1.3534171E4,1.8532482E4,9.73117E3,1.633896E4,2.8893764E4,8.660081E3,1.3368142E4,1.2958446E4,2.0088887E4,2.314869E4,3.6201574E4,7.460381E3,1.0157914E4,1.1226077E4,1.6198748E4,9.682477E3,1.4400106E4,1.6346043E4,2.2667104E4,1.4080912E4,2.5298023E4,4.1920883E4,2.3906941E4,6.059803E3,8.433596E3,1.1492433E4,7.4068325E3,1.7220377E4,1.1009775E4,1.496252E4,1.8884256E4,1.3713518E4,9.001967E3,1.5450395E4,1.0580799E4,1.2862073E4,1.7198125E4,2.1779174E4,3.0388854E4,2.0321617E3,1.6227098E4,1.9231084E4,2.6722078E4,3.914184E4,5.7785008E4,8.638186E3,2.7487984E4,9.984669E3,5.77024E3,7.8212524E3,1.0487179E4,1.037417E4,1.3047216E4,4.9022056E3,8.288763E3,1.5429625E4,1.8484936E4,1.0668331E4,1.376141E4,1.3888564E4,1.782915E4,2.005542E4,1.5910927E4,1.1898229E4,1.7598463E4,6.589398E3,9.73459E3,1.4660797E4,1.8089623E4,5.4526553E3,1.1112559E4,1.0902679E4,1.5274805E4,1.912033E4,1.5677582E4,2.3144605E4,1.9002295E4,2.4864553E4,3.3023117E4,4.088687E3,1.4448995E3,1.2144424E4,1.8684346E4,2.9242305E4,1.819937E4,2.5076791E4,2.9827828E4,3.5679953E4,4.209988E4,5.4028816E4,9.613507E4,4.8192886E3,1.5702313E4,2.0610271E4,3.2113607E4,9.630382E3,1.4009864E4,4.2222964E3,6.3953086E3,8.816596E3,6.934162E3,9.740198E3,1.4703176E4,8.677504E3,1.1379415E4,1.1680095E4,1.416503E4,3.144974E3,5.7883936E3,7.0278057E3,9.423968E3,1.942389E4,1.46682E4,8.836343E3,1.1263481E4,1.4354616E4,9.354297E3,1.5012555E4,1.1717093E4,1.7043428E4,2.1050146E4,1.9369453E4,2.3301344E4,1.6696139E4,1.2147844E4],"categories":[],"categories_nodes":[],"categories_segments":[],"categories_sizes":[],"default_left":[1,1,1,1,1,1,1,1,1,1,1,1,1,1,1,1,1,1,1,1,1,1,1,1,1,1,1,1,1,1,1,1,1,1,1,1,1,1,1,1,1,1,1,1,1,1,1,1,1,1,1,1,1,1,1,0,1,1,1,1,1,1,1,0,0,0,0,0,0,0,0,0,0,0,0,0,0,0,0,0,0,0,0,0,0,0,0,0,0,0,0,0,0,0,0,0,0,0,0,0,0,0,0,0,0,0,0,0,0,0,0,0,0,0,0,0,0,0,0,0,0,0,0,0,0],"id":1,"left_children":[1,3,5,7,9,11,13,15,17,19,21,23,25,27,29,31,33,35,37,39,41,43,45,47,49,51,53,55,57,59,61,63,65,67,69,71,73,75,77,79,81,83,85,87,89,91,93,95,97,99,101,103,105,107,109,-1,111,113,115,117,119,121,123,-1,-1,-1,-1,-1,-1,-1,-1,-1,-1,-1,-1,-1,-1,-1,-1,-1,-1,-1,-1,-1,-1,-1,-1,-1,-1,-1,-1,-1,-1,-1,-1,-1,-1,-1,-1,-1,-1,-1,-1,-1,-1,-1,-1,-1,-1,-1,-1,-1,-1,-1,-1,-1,-1,-1,-1,-1,-1,-1,-1,-1,-1],"loss_changes":[1.481728E12,7.651113E11,1.7236204E11,3.5217683E11,2.4619516E11,6.1390717E10,6.0882158E10,6.8927095E10,1.2680482E11,6.390114E10,1.8097766E11,2.5843007E10,5.5756325E10,7.247626E9,1.4112522E10,1.2143952E10,4.05639E10,1.574699E10,5.2824637E10,1.6361529E10,2.2502179E10,7.5551736E10,4.4817318E10,8.797979E9,1.40095E10,1.7668506E10,1.0939843E10,1.6316416E8,5.057282E9,8.908243E9,4.427219E9,4.332298E9,6.703612E9,1.6325149E10,5.919572E9,4.8493363E9,1.2323914E10,2.6101678E10,1.0850075E10,1.1124109E8,5.170381E9,4.735451E9,1.0263724E10,1.3909623E10,3.240303E10,4.1867203E9,2.0557857E10,6.266061E8,6.9965906E9,7.5641324E9,7.95358E9,1.0068099E10,6.3751455E9,2.0015288E9,5.194318E9,0E0,1.1288166E8,5.277876E9,1.4552351E9,5.1155763E9,1.6836035E9,1.7174036E9,9.495511E8,0E0,0E0,0E0,0E0,0E0,0E0,0E0,0E0,0E0,0E0,0E0,0E0,0E0,0E0,0E0,0E0,0E0,0E0,0E0,0E0,0E0,0E0,0E0,0E0,0E0,0E0,0E0,0E0,0E0,0E0,0E0,0E0,0E0,0E0,0E0,0E0,0E0,0E0,0E0,0E0,0E0,0E0,0E0,0E0,0E0,0E0,0E0,0E0,0E0,0E0,0E0,0E0,0E0,0E0,0E0,0E0,0E0,0E0,0E0,0E0,0E0,0E0],"parents":[2147483647,0,0,1,1,2,2,3,3,4,4,5,5,6,6,7,7,8,8,9,9,10,10,11,11,12,12,13,13,14,14,15,15,16,16,17,17,18,18,19,19,20,20,21,21,22,22,23,23,24,24,25,25,26,26,27,27,28,28,29,29,30,30,31,31,32,32,33,33,34,34,35,35,36,36,37,37,38,38,39,39,40,40,41,41,42,42,43,43,44,44,45,45,46,46,47,47,48,48,49,49,50,50,51,51,52,52,53,53,54,54,56,56,57,57,58,58,59,59,60,60,61,61,62,62],"right_children":[2,4,6,8,10,12,14,16,18,20,22,24,26,28,30,32,34,36,38,40,42,44,46,48,50,52,54,56,58,60,62,64,66,68,70,72,74,76,78,80,82,84,86,88,90,92,94,96,98,100,102,104,106,108,110,-1,112,114,116,118,120,122,124,-1,-1,-1,-1,-1,-1,-1,-1,-1,-1,-1,-1,-1,-1,-1,-1,-1,-1,-1,-1,-1,-1,-1,-1,-1,-1,-1,-1,-1,-1,-1,-1,-1,-1,-1,-1,-1,-1,-1,-1,-1,-1,-1,-1,-1,-1,-1,-1,-1,-1,-1,-1,-1,-1,-1,-1,-1,-1,-1,-1,-1,-1],"split_conditions":[1.5E0,5.955E0,2.0185E3,2.0175E3,2.75E0,1.45E0,1.45E0,1.75E0,1.9E0,2.0185E3,2.51865E4,2.0165E3,6.85545E4,2.1E1,5.29E0,1.5E0,8.04455E4,1.25E0,2.35E0,2.0105E3,1.8E0,3.5E0,2.0135E3,1.5E0,4.455E0,1.95E0,2.0135E3,1.5E1,2.0195E3,1.8E0,1.2087E4,1.45E1,2.0155E3,4.785E0,2.0125E3,4.95E0,9.772E3,1.5289E4,9.5E0,1.5E0,1.9E0,5E-1,5E-1,6.96E0,1.0865E1,2.0115E3,6.3E1,1.55E1,2.0145E3,2.5E0,5.5E0,2.0165E3,2.0165E3,2.0105E3,1.9E0,4.6288877E3,1.18355E4,5.65E1,1.63E2,1.1652E4,1.59E2,2.0195E3,1.67E2,3.5694688E3,5.279539E3,1.9768195E3,2.920377E3,4.3982393E3,5.426887E3,1.6357966E3,3.3337678E3,3.2708037E3,4.5824414E3,5.736099E3,4.703275E3,6.943382E3,5.7006885E3,7.459366E3,9.906936E3,1.2266062E3,4.3346988E2,3.6433274E3,5.6053037E3,8.772691E3,5.459811E3,7.5230376E3,8.948349E3,1.0703986E4,1.2629964E4,1.62086455E4,2.8840521E4,1.4457866E3,4.7106943E3,6.1830815E3,9.634083E3,2.8891147E3,4.2029595E3,1.266689E3,1.9185927E3,2.6449788E3,2.0802488E3,2.9220596E3,4.410953E3,2.6032512E3,3.4138247E3,3.5040286E3,4.2495093E3,9.4349225E2,1.7365182E3,2.1083418E3,2.8271904E3,5.8271675E3,4.4004604E3,2.6509028E3,3.3790447E3,4.3063853E3,2.806289E3,4.5037666E3,3.515128E3,5.1130283E3,6.3150444E3,5.810836E3,6.9904033E3,5.008842E3,3.6443533E3],"split_indices":[3,6,2,2,7,7,7,7,7,2,4,2,4,1,6,0,4,7,7,2,7,7,2,0,6,7,2,1,2,7,4,1,2,6,2,6,4,4,1,0,7,0,5,6,6,2,1,1,2,0,0,2,2,2,7,0,4,1,1,4,1,2,1,0,0,0,0,0,0,0,0,0,0,0,0,0,0,0,0,0,0,0,0,0,0,0,0,0,0,0,0,0,0,0,0,0,0,0,0,0,0,0,0,0,0,0,0,0,0,0,0,0,0,0,0,0,0,0,0,0,0,0,0,0,0],"split_type":[0,0,0,0,0,0,0,0,0,0,0,0,0,0,0,0,0,0,0,0,0,0,0,0,0,0,0,0,0,0,0,0,0,0,0,0,0,0,0,0,0,0,0,0,0,0,0,0,0,0,0,0,0,0,0,0,0,0,0,0,0,0,0,0,0,0,0,0,0,0,0,0,0,0,0,0,0,0,0,0,0,0,0,0,0,0,0,0,0,0,0,0,0,0,0,0,0,0,0,0,0,0,0,0,0,0,0,0,0,0,0,0,0,0,0,0,0,0,0,0,0,0,0,0,0],"sum_hessian":[7.7959E4,3.3684E4,4.4275E4,2.7801E4,5.883E3,3.4205E4,1.007E4,1.4623E4,1.3178E4,3.296E3,2.587E3,1.8996E4,1.5209E4,5.735E3,4.335E3,4.471E3,1.0152E4,5.378E3,7.8E3,6.33E2,2.663E3,1.764E3,8.23E2,7.791E3,1.1205E4,1.0239E4,4.97E3,1.97E2,5.538E3,2.973E3,1.362E3,6.43E2,3.828E3,7.96E3,2.192E3,1.06E3,4.318E3,6.999E3,8.01E2,9.6E1,5.37E2,5.09E2,2.154E3,1.504E3,2.6E2,1.57E2,6.66E2,5.33E2,7.258E3,8.635E3,2.57E3,5.96E3,4.279E3,1.296E3,3.674E3,8.7E1,1.1E2,4.931E3,6.07E2,2.167E3,8.06E2,9.73E2,3.89E2,4.41E2,2.02E2,8.94E2,2.934E3,6.132E3,1.828E3,2.07E2,1.985E3,5.88E2,4.72E2,1.902E3,2.416E3,4.687E3,2.312E3,2.62E2,5.39E2,2E1,7.6E1,2.04E2,3.33E2,4.5E1,4.64E2,1.414E3,7.4E2,6.99E2,8.05E2,2.39E2,2.1E1,1.03E2,5.4E1,2.7E2,3.96E2,4.93E2,4E1,2.09E3,5.168E3,4.065E3,4.57E3,2.186E3,3.84E2,2.221E3,3.739E3,1.93E3,2.349E3,4.36E2,8.6E2,1.744E3,1.93E3,8.5E1,2.5E1,1.213E3,3.718E3,5.33E2,7.4E1,1.424E3,7.43E2,6.53E2,1.53E2,8.09E2,1.64E2,3.19E2,7E1],"tree_param":{"num_deleted":"0","num_feature":"9","num_nodes":"125","size_leaf_vector":"0"}},{"base_weights":[9.478042E3,1.2978937E4,6.8143623E3,1.0078938E4,1.6990164E4,5.689558E3,8.602124E3,9.099918E3,1.5292049E4,1.5083123E4,2.8083672E4,4.329903E3,6.440912E3,7.2078784E3,1.079893E4,6.258469E3,9.930581E3,1.4057784E4,2.608253E4,1.2379497E4,1.6608707E4,2.6611371E4,4.409111E4,4.6574814E3,2.831927E3,3.9973677E3,6.9696245E3,1.2511186E4,7.0672275E3,1.1197975E4,5.4544336E3,4.9943604E3,7.6280146E3,7.9188496E3,1.1226042E4,9.524476E3,1.586676E4,5.7075617E4,2.4239312E4,1.3807742E4,1.0512912E4,1.5030115E4,1.8391875E4,2.2819262E4,2.9360418E4,6.5676945E4,3.9649367E4,3.1123765E3,4.821572E3,9.303782E2,3.0868445E3,2.2599495E3,4.511004E3,6.1911377E3,8.303887E3,1.0841141E4,1.4320514E4,6.225453E3,7.753942E3,9.166482E3,1.218873E4,5.8410474E3,4.471839E3,1.6989042E3,5.5373086E3,8.378392E3,5.8750474E3,1.0978369E4,7.4223887E3,9.390944E3,1.2213371E4,4.0261658E3,1.0905712E4,1.0672757E4,1.7290416E4,1.6744678E4,6.133676E4,3.0079697E4,1.7616793E4,1.372852E4,4.397472E4,9.74135E3,1.462369E4,1.4520485E4,1.8437129E4,1.6793852E4,2.0458012E4,2.3449658E4,1.1935359E4,2.852197E4,3.7912418E4,4.9333035E4,7.485156E4,7.0382E4,3.5593098E4,7.3604536E3,3.0463616E3,4.370686E3,5.20962E3,-9.802305E1,1.434186E3,2.3897893E3,3.3121042E3,2.082713E3,1.3381533E4,5.8166436E3,4.0156274E3,5.9031504E3,8.330834E3,7.351689E3,9.70936E3,1.3530943E4,1.858712E4,4.2174233E3,6.739374E3,1.2990199E4,7.647826E3,8.2293125E3,1.1503275E4,1.3477761E4,1.1000145E4,7.686968E3,5.623227E3],"categories":[],"categories_nodes":[],"categories_segments":[],"categories_sizes":[],"default_left":[1,1,1,1,1,1,1,1,1,1,1,1,1,1,1,1,1,1,1,1,1,1,1,1,1,1,1,1,1,1,1,1,1,1,1,1,1,1,1,1,1,1,1,1,1,1,1,1,1,1,1,1,1,1,1,0,1,1,1,1,1,1,0,0,0,0,0,0,0,0,0,0,0,0,0,0,0,0,0,0,0,0,0,0,0,0,0,0,0,0,0,0,0,0,0,0,0,0,0,0,0,0,0,0,0,0,0,0,0,0,0,0,0,0,0,0,0,0,0,0,0,0,0],"id":2,"left_children":[1,3,5,7,9,11,13,15,17,19,21,23,25,27,29,31,33,35,37,39,41,43,45,47,49,51,53,55,57,59,61,63,65,67,69,71,73,75,77,79,81,83,85,87,89,91,93,95,97,99,101,103,105,107,109,-1,111,113,115,117,119,121,-1,-1,-1,-1,-1,-1,-1,-1,-1,-1,-1,-1,-1,-1,-1,-1,-1,-1,-1,-1,-1,-1,-1,-1,-1,-1,-1,-1,-1,-1,-1,-1,-1,-1,-1,-1,-1,-1,-1,-1,-1,-1,-1,-1,-1,-1,-1,-1,-1,-1,-1,-1,-1,-1,-1,-1,-1,-1,-1,-1,-1],"loss_changes":[7.2690853E11,3.9167145E11,8.898491E10,9.96543E10,2.9857153E11,2.7738767E10,5.228816E10,3.8797574E10,4.078692E10,4.954548E10,4.7658828E10,4.735369E9,2.2586065E10,7.715324E9,1.4091551E10,6.414287E9,3.310787E10,2.2605693E10,1.6668656E10,1.1465064E10,2.1420704E10,1.9137036E10,1.398299E10,1.9978158E9,8.400886E8,2.7705303E9,1.4894563E10,6.5757594E8,5.844435E9,1.2314673E10,1.4976614E8,3.463549E9,2.3013704E9,7.5025285E9,1.3919912E10,5.986091E9,1.4471332E10,1.8944901E9,1.1073503E10,5.285085E9,5.8584433E9,6.8408443E9,1.1592008E10,5.2296417E9,6.791758E9,5.0591334E8,1.5695233E10,1.9211162E8,1.2326011E9,1.0739074E8,2.3279309E8,1.3775616E9,1.5315108E9,5.552734E9,7.0202163E9,0E0,1.7296589E8,4.7031583E9,3.0178673E9,4.3465933E9,6.2055383E9,8.90583E7,0E0,0E0,0E0,0E0,0E0,0E0,0E0,0E0,0E0,0E0,0E0,0E0,0E0,0E0,0E0,0E0,0E0,0E0,0E0,0E0,0E0,0E0,0E0,0E0,0E0,0E0,0E0,0E0,0E0,0E0,0E0,0E0,0E0,0E0,0E0,0E0,0E0,0E0,0E0,0E0,0E0,0E0,0E0,0E0,0E0,0E0,0E0,0E0,0E0,0E0,0E0,0E0,0E0,0E0,0E0,0E0,0E0,0E0,0E0,0E0,0E0],"parents":[2147483647,0,0,1,1,2,2,3,3,4,4,5,5,6,6,7,7,8,8,9,9,10,10,11,11,12,12,13,13,14,14,15,15,16,16,17,17,18,18,19,19,20,20,21,21,22,22,23,23,24,24,25,25,26,26,27,27,28,28,29,29,30,30,31,31,32,32,33,33,34,34,35,35,36,36,37,37,38,38,39,39,40,40,41,41,42,42,43,43,44,44,45,45,46,46,47,47,48,48,49,49,50,50,51,51,52,52,53,53,54,54,56,56,57,57,58,58,59,59,60,60,61,61],"right_children":[2,4,6,8,10,12,14,16,18,20,22,24,26,28,30,32,34,36,38,40,42,44,46,48,50,52,54,56,58,60,62,64,66,68,70,72,74,76,78,80,82,84,86,88,90,92,94,96,98,100,102,104,106,108,110,-1,112,114,116,118,120,122,-1,-1,-1,-1,-1,-1,-1,-1,-1,-1,-1,-1,-1,-1,-1,-1,-1,-1,-1,-1,-1,-1,-1,-1,-1,-1,-1,-1,-1,-1,-1,-1,-1,-1,-1,-1,-1,-1,-1,-1,-1,-1,-1,-1,-1,-1,-1,-1,-1,-1,-1,-1,-1,-1,-1,-1,-1,-1,-1,-1,-1],"split_conditions":[1.5E0,2.0185E3,2.0175E3,2.35E0,2.65E0,1.3499999E0,1.45E0,2.0155E3,3.85E0,1.9E0,3.5E0,6.3825E4,2.0145E3,1E0,1.83E2,2.0145E3,1.75E0,2.0155E3,6.8395E3,4.5E0,5.12E0,6.3E1,5E-1,3.44E0,2.0115E3,2.0115E3,1.6500001E0,1.45E1,2.0185E3,4.29E0,2.04775E4,2.0115E3,4.5E0,1.5E0,2.0165E3,2.0125E3,7.5E0,1.926E3,4.05E0,1.87E2,1.5E0,2.0195E3,5E-1,6E0,1.835E2,1.265E2,2.95E1,5E-1,2.0165E3,2.0085E3,2.0135E3,9.39E0,1.5E0,7.5E0,3.95E0,3.2523423E3,5.075E0,5.65E1,2.1E1,1.85E0,9.7115E3,1.9805E3,1.3415518E3,5.0967126E2,1.6611926E3,2.5135176E3,1.7625143E3,3.293511E3,2.2267168E3,2.8172834E3,3.6640115E3,1.2078497E3,3.2717136E3,3.2018271E3,5.187125E3,5.0234033E3,1.840103E4,9.023909E3,5.285038E3,4.118556E3,1.3192416E4,2.922405E3,4.3871074E3,4.356146E3,5.5311387E3,5.038156E3,6.137404E3,7.034898E3,3.580608E3,8.556592E3,1.1373726E4,1.4799911E4,2.2455469E4,2.1114602E4,1.067793E4,2.2081362E3,9.139085E2,1.3112058E3,1.5628861E3,-2.9406916E1,4.3025583E2,7.169368E2,9.936313E2,6.248139E2,4.0144602E3,1.7449932E3,1.2046882E3,1.7709452E3,2.4992502E3,2.2055068E3,2.912808E3,4.0592832E3,5.5761357E3,1.265227E3,2.0218123E3,3.8970598E3,2.294348E3,2.468794E3,3.4509827E3,4.0433284E3,3.3000435E3,2.3060903E3,1.6869681E3],"split_indices":[3,2,2,7,7,7,7,2,7,7,7,4,2,0,1,2,7,2,4,0,6,1,0,6,2,2,7,1,2,6,4,2,0,0,2,2,1,4,7,1,5,2,5,0,1,1,1,7,2,2,2,6,0,0,6,0,6,1,1,7,4,4,0,0,0,0,0,0,0,0,0,0,0,0,0,0,0,0,0,0,0,0,0,0,0,0,0,0,0,0,0,0,0,0,0,0,0,0,0,0,0,0,0,0,0,0,0,0,0,0,0,0,0,0,0,0,0,0,0,0,0,0,0],"split_type":[0,0,0,0,0,0,0,0,0,0,0,0,0,0,0,0,0,0,0,0,0,0,0,0,0,0,0,0,0,0,0,0,0,0,0,0,0,0,0,0,0,0,0,0,0,0,0,0,0,0,0,0,0,0,0,0,0,0,0,0,0,0,0,0,0,0,0,0,0,0,0,0,0,0,0,0,0,0,0,0,0,0,0,0,0,0,0,0,0,0,0,0,0,0,0,0,0,0,0,0,0,0,0,0,0,0,0,0,0,0,0,0,0,0,0,0,0,0,0,0,0,0,0],"sum_hessian":[7.7959E4,3.3684E4,4.4275E4,1.9552E4,1.4132E4,2.7179E4,1.7096E4,1.6463E4,3.089E3,1.2061E4,2.071E3,9.676E3,1.7503E4,1.0461E4,6.635E3,3.726E3,1.2737E4,2.774E3,3.15E2,4.354E3,7.707E3,1.899E3,1.72E2,7.938E3,1.738E3,3.115E3,1.4388E4,2.68E2,1.0193E4,6.173E3,4.62E2,1.94E3,1.786E3,4.992E3,7.745E3,7.93E2,1.981E3,1.6E1,2.99E2,2.463E3,1.891E3,4.093E3,3.614E3,8.02E2,1.097E3,2.7E1,1.45E2,7.64E2,7.174E3,2.06E2,1.532E3,7.12E2,2.403E3,9.09E3,5.298E3,1.43E2,1.25E2,4.584E3,5.609E3,2.027E3,4.146E3,3.28E2,1.34E2,2.75E2,1.665E3,1.248E3,5.38E2,6.94E2,4.298E3,2.713E3,5.032E3,1.6E2,6.33E2,4.28E2,1.553E3,2E0,1.4E1,1.57E2,1.42E2,2.458E3,5E0,1.595E3,2.96E2,3.565E3,5.28E2,2.043E3,1.571E3,7.57E2,4.5E1,1.003E3,9.4E1,1.2E1,1.5E1,1.5E1,1.3E2,1E1,7.54E2,3.324E3,3.85E3,6.8E1,1.38E2,3.77E2,1.155E3,7.02E2,1E1,6.58E2,1.745E3,8.015E3,1.075E3,3.162E3,2.136E3,1.09E2,1.6E1,9.36E2,3.648E3,1.09E2,5.5E3,1.45E3,5.77E2,1.984E3,2.162E3,3.1E1,2.97E2],"tree_param":{"num_deleted":"0","num_feature":"9","num_nodes":"123","size_leaf_vector":"0"}},{"base_weights":[6.638226E3,9.091618E3,4.7715454E3,1.2143603E4,7.0126953E3,3.9836135E3,6.023883E3,1.0616402E4,2.0278316E4,6.113287E3,9.177946E3,6.346185E3,3.742559E3,5.047653E3,7.562053E3,8.530197E3,1.1950022E4,1.9078705E4,3.0909494E4,4.7247397E3,7.084703E3,6.9957485E3,1.2602284E4,5.4357173E3,8.187996E3,2.7073984E3,4.208755E3,4.227674E3,5.64189E3,1.004257E4,7.0342134E3,7.933197E3,1.206573E4,1.1363009E4,1.5016106E4,1.6199222E4,2.1285979E4,2.8869984E4,6.3345277E4,3.2376821E3,5.2594365E3,5.8813394E3,8.111557E3,8.109464E3,4.9719927E3,1.3607782E4,7.389547E3,6.798032E3,4.4711016E3,8.656938E3,4.756165E3,3.0204683E3,1.5933966E3,3.7585232E3,5.9824204E3,5.214906E3,2.7154597E3,5.832899E3,2.161232E3,7.7641475E3,1.0995191E4,6.2482764E3,8.918728E3,7.86897E3,3.7714004E4,1.1133252E4,1.5128169E4,1.2072718E4,9.157324E3,1.2935783E4,1.6775895E4,1.1903596E4,1.758102E4,1.8669293E4,2.4112127E4,5.1694875E4,2.557607E4,3.9788994E1,3.5093853E3,4.7388003E3,6.569325E3,7.0060957E3,4.6657573E3,7.652198E3,1.1755567E4,7.9723774E3,6.987633E4,5.6016094E3,1.50943E3,7.369228E3,1.4518062E4,6.617091E3,1.0571125E4,5.874486E3,7.691687E3,5.063344E3,2.9360657E3,7.9953457E3,9.877511E3,1.1498346E3,5.0928013E3,2.767045E3,4.190097E3,1.0702562E3,2.3447126E3,6.5777E3,3.6239033E3,4.8664473E3,6.629756E3,5.675459E3,1.8399192E3,2.3391897E3,5.1633057E3,5.349996E3,1.1037655E4,3.1061448E3,5.194483E2,9.112163E3,6.7580757E3,1.0772309E4,1.9789297E4,7.1685356E3,5.2868413E3,7.6411587E3,1.0517517E4],"categories":[],"categories_nodes":[],"categories_segments":[],"categories_sizes":[],"default_left":[1,1,1,1,1,1,1,1,1,1,1,1,1,1,1,1,1,1,1,1,1,1,1,1,1,1,1,1,1,1,1,1,1,1,1,1,1,1,0,1,1,1,1,1,1,1,1,1,1,1,1,1,1,1,1,1,1,1,1,1,1,1,1,0,0,0,0,0,0,0,0,0,0,0,0,0,0,0,0,0,0,0,0,0,0,0,0,0,0,0,0,0,0,0,0,0,0,0,0,0,0,0,0,0,0,0,0,0,0,0,0,0,0,0,0,0,0,0,0,0,0,0,0,0,0],"id":3,"left_children":[1,3,5,7,9,11,13,15,17,19,21,23,25,27,29,31,33,35,37,39,41,43,45,47,49,51,53,55,57,59,61,63,65,67,69,71,73,75,-1,77,79,81,83,85,87,89,91,93,95,97,99,101,103,105,107,109,111,113,115,117,119,121,123,-1,-1,-1,-1,-1,-1,-1,-1,-1,-1,-1,-1,-1,-1,-1,-1,-1,-1,-1,-1,-1,-1,-1,-1,-1,-1,-1,-1,-1,-1,-1,-1,-1,-1,-1,-1,-1,-1,-1,-1,-1,-1,-1,-1,-1,-1,-1,-1,-1,-1,-1,-1,-1,-1,-1,-1,-1,-1,-1,-1,-1,-1],"loss_changes":[3.569898E11,2.1364054E11,4.366572E10,1.6932615E11,3.896869E10,1.5455519E10,2.56348E10,3.1871074E10,2.690633E10,1.9067666E10,4.384316E10,4.172923E9,1.1892097E10,5.0738627E9,8.617951E9,9.370862E9,1.2442665E10,1.1985486E10,1.2526436E10,4.6201324E9,1.0245505E10,8.057897E9,1.1886559E10,2.1851955E9,1.2945736E9,2.667389E9,1.3557072E10,6.554632E9,4.018307E9,2.4367186E9,8.053342E9,7.0480527E9,1.676329E9,9.103278E9,3.8941983E9,4.8123085E9,7.647527E9,1.4165606E10,0E0,1.3422766E9,2.8931768E9,5.2161085E9,7.4292265E9,1.9053412E10,2.7776942E9,1.0773594E10,8.44288E8,5.3007155E8,8.8515584E8,5.0971034E8,1.1797427E8,1.7609441E9,6.589832E8,5.1242926E9,2.453545E9,4.1257124E9,1.5905516E9,1.4385381E10,4.9016205E8,4.0766464E8,1.3881917E9,3.3834926E9,3.2061112E9,0E0,0E0,0E0,0E0,0E0,0E0,0E0,0E0,0E0,0E0,0E0,0E0,0E0,0E0,0E0,0E0,0E0,0E0,0E0,0E0,0E0,0E0,0E0,0E0,0E0,0E0,0E0,0E0,0E0,0E0,0E0,0E0,0E0,0E0,0E0,0E0,0E0,0E0,0E0,0E0,0E0,0E0,0E0,0E0,0E0,0E0,0E0,0E0,0E0,0E0,0E0,0E0,0E0,0E0,0E0,0E0,0E0,0E0,0E0,0E0,0E0,0E0],"parents":[2147483647,0,0,1,1,2,2,3,3,4,4,5,5,6,6,7,7,8,8,9,9,10,10,11,11,12,12,13,13,14,14,15,15,16,16,17,17,18,18,19,19,20,20,21,21,22,22,23,23,24,24,25,25,26,26,27,27,28,28,29,29,30,30,31,31,32,32,33,33,34,34,35,35,36,36,37,37,39,39,40,40,41,41,42,42,43,43,44,44,45,45,46,46,47,47,48,48,49,49,50,50,51,51,52,52,53,53,54,54,55,55,56,56,57,57,58,58,59,59,60,60,61,61,62,62],"right_children":[2,4,6,8,10,12,14,16,18,20,22,24,26,28,30,32,34,36,38,40,42,44,46,48,50,52,54,56,58,60,62,64,66,68,70,72,74,76,-1,78,80,82,84,86,88,90,92,94,96,98,100,102,104,106,108,110,112,114,116,118,120,122,124,-1,-1,-1,-1,-1,-1,-1,-1,-1,-1,-1,-1,-1,-1,-1,-1,-1,-1,-1,-1,-1,-1,-1,-1,-1,-1,-1,-1,-1,-1,-1,-1,-1,-1,-1,-1,-1,-1,-1,-1,-1,-1,-1,-1,-1,-1,-1,-1,-1,-1,-1,-1,-1,-1,-1,-1,-1,-1,-1,-1,-1,-1],"split_conditions":[1.5E0,1.6261E4,2.0175E3,2.45E0,2.05E0,5E-1,1.45E0,1.9E0,3.5E0,2.0165E3,7E1,1.55E1,2.0155E3,4.205E0,1.5E0,2.0195E3,2.0195E3,7.2E1,1.0940001E1,2.0145E3,1.75E0,6.22115E4,5E0,4.7138E4,1.07536E5,1.034045E5,1.6500001E0,2.5E0,1.685E2,5.5E0,7.5E0,1.935E2,5.62E0,4.5E0,5.12E0,4.87E0,6.96E0,2.95E1,1.9003584E4,2.0095E3,1.195E2,4.5E0,5.71E0,1.0815001E1,1.227175E5,2.0145E3,2.0175E3,1.3E1,9.61505E4,2.0165E3,2.0085E3,7.5E0,1.95E0,2.1E1,3.78E0,1.05E0,7.5E0,1.2E2,4.785E0,6.296E3,6.2799997E0,4.5E0,1.505E2,2.3606912E3,1.1314201E4,3.3399758E3,4.5384507E3,3.6218154E3,2.7471973E3,3.880735E3,5.0327686E3,3.5710789E3,5.274306E3,5.600788E3,7.233638E3,1.5508463E4,7.6728213E3,1.1936699E1,1.0528157E3,1.4216401E3,1.9707976E3,2.1018289E3,1.3997273E3,2.2956597E3,3.5266704E3,2.3917134E3,2.0962898E4,1.6804829E3,4.5282904E2,2.2107686E3,4.3554185E3,1.9851273E3,3.1713376E3,1.7623458E3,2.307506E3,1.5190033E3,8.8081976E2,2.3986038E3,2.9632534E3,3.4495038E2,1.5278405E3,8.301135E2,1.2570292E3,3.2107687E2,7.034138E2,1.9733102E3,1.087171E3,1.4599342E3,1.9889269E3,1.7026378E3,5.5197577E2,7.0175696E2,1.5489918E3,1.6049989E3,3.3112966E3,9.3184344E2,1.558345E2,2.733649E3,2.0274227E3,3.2316926E3,5.936789E3,2.1505608E3,1.5860525E3,2.2923477E3,3.1552551E3],"split_indices":[3,4,2,7,7,0,7,7,7,2,1,1,2,6,0,2,2,1,6,2,7,4,0,4,4,4,7,0,1,1,0,1,6,0,6,6,6,1,0,2,1,0,6,6,4,2,2,1,4,2,2,0,7,1,6,7,0,1,6,4,6,0,1,0,0,0,0,0,0,0,0,0,0,0,0,0,0,0,0,0,0,0,0,0,0,0,0,0,0,0,0,0,0,0,0,0,0,0,0,0,0,0,0,0,0,0,0,0,0,0,0,0,0,0,0,0,0,0,0,0,0,0,0,0,0],"split_type":[0,0,0,0,0,0,0,0,0,0,0,0,0,0,0,0,0,0,0,0,0,0,0,0,0,0,0,0,0,0,0,0,0,0,0,0,0,0,0,0,0,0,0,0,0,0,0,0,0,0,0,0,0,0,0,0,0,0,0,0,0,0,0,0,0,0,0,0,0,0,0,0,0,0,0,0,0,0,0,0,0,0,0,0,0,0,0,0,0,0,0,0,0,0,0,0,0,0,0,0,0,0,0,0,0,0,0,0,0,0,0,0,0,0,0,0,0,0,0,0,0,0,0,0,0],"sum_hessian":[7.7959E4,3.3684E4,4.4275E4,1.3646E4,2.0038E4,2.7179E4,1.7096E4,1.1491E4,2.155E3,1.416E4,5.878E3,2.514E3,2.4665E4,1.0461E4,6.635E3,4.484E3,7.007E3,1.939E3,2.16E2,5.831E3,8.329E3,3.592E3,2.286E3,1.685E3,8.29E2,7.661E3,1.7004E4,4.399E3,6.062E3,1.161E3,5.474E3,3.839E3,6.45E2,5.885E3,1.122E3,8.45E2,1.094E3,2.05E2,1.1E1,1.544E3,4.287E3,3.838E3,4.491E3,2.315E3,1.277E3,1.915E3,3.71E2,6.96E2,9.89E2,7.28E2,1.01E2,5.979E3,1.682E3,1.3564E4,3.44E3,2.66E3,1.739E3,5.746E3,3.16E2,3.45E2,8.16E2,3.866E3,1.608E3,3.832E3,7E0,4.98E2,1.47E2,4.449E3,1.436E3,5.18E2,6.04E2,2.08E2,6.37E2,5.72E2,5.22E2,2.4E1,1.81E2,1.21E2,1.423E3,3.071E3,1.216E3,1.991E3,1.847E3,3.991E3,5E2,2.311E3,4E0,1.08E3,1.97E2,2.45E2,1.67E3,3.01E2,7E1,3.46E2,3.5E2,7.12E2,2.77E2,4.77E2,2.51E2,9E0,9.2E1,4.917E3,1.062E3,9.93E2,6.89E2,6.16E2,1.2948E4,1.266E3,2.174E3,2.34E3,3.2E2,1.509E3,2.3E2,5.26E3,4.86E2,2E2,1.16E2,1.44E2,2.01E2,7.98E2,1.8E1,1.972E3,1.894E3,8.97E2,7.11E2],"tree_param":{"num_deleted":"0","num_feature":"9","num_nodes":"125","size_leaf_vector":"0"}},{"base_weights":[4.6494346E3,4.0524421E3,8.669253E3,5.380488E3,3.2181477E3,7.156659E3,1.2420835E4,4.16411E3,6.8032314E3,3.7875173E3,2.3418306E3,8.642591E3,5.0981304E3,1.42605E4,6.915123E3,3.5861755E3,5.633208E3,7.6756284E3,4.607302E3,3.1919768E3,4.9409844E3,1.9831835E3,3.1662415E3,7.7457163E3,1.1490967E4,3.3280208E3,6.8369365E3,1.3466532E4,2.5584607E4,8.790764E3,1.9629945E3,5.3755454E3,3.277463E3,4.459606E3,8.0648096E3,7.2726147E3,1.1427105E4,4.884164E3,-5.765741E2,5.88661E3,3.0678408E3,4.7814795E3,8.351815E3,2.2038994E3,1.0581183E3,3.47155E3,1.0881504E3,6.848681E3,1.0293694E4,1.8604242E4,9.297253E3,1.0314469E3,4.2901216E3,-9.441008E1,7.3566094E3,3.5977732E3,1.4041234E4,5.1830254E4,1.9481406E4,4.878996E3,1.1366765E4,-8.503969E2,4.0743167E3,4.2525137E3,6.263435E3,6.82765E3,3.154343E3,5.1775684E3,3.7082998E3,8.949485E3,4.6539873E3,6.0721895E3,8.555854E3,2.9683611E4,1.0850948E4,4.286119E3,8.0056978E3,7.388581E2,-2.1844265E3,4.8217314E3,7.070237E3,2.0307303E3,3.4363948E3,4.9742275E3,2.1952837E3,7.791943E3,1.1294305E4,1.6588049E3,2.6481091E3,1.2575151E3,5.170555E1,2.7770115E3,4.0004272E3,1.6611693E3,3.3645958E1,6.405806E3,9.441688E3,1.0003457E4,2.275023E4,6.774422E3,2.0512748E4,4.7807407E3,1.0621138E4,2.1769133E3,4.5522916E2,3.5333213E3,9.086707E3,-1.4615455E3,6.796869E2,1.027328E4,6.604739E3,4.6053315E3,-5.4507733E2,1.4785776E4,7.3524087E3,5.7020887E4,1.862541E4,2.9237848E4,9.888096E3,3.9121108E3,6.477504E3,1.5013619E4,9.666283E3,-2.4579336E3,4.318906E3,3.0224434E3,7.936735E3],"categories":[],"categories_nodes":[],"categories_segments":[],"categories_sizes":[],"default_left":[1,1,1,1,1,1,1,1,1,1,1,1,1,1,1,1,1,1,1,1,1,1,1,1,1,1,1,1,1,1,1,1,1,1,1,1,1,1,1,1,1,1,1,1,1,1,1,1,1,1,1,1,1,1,1,1,1,1,1,1,1,1,1,0,0,0,0,0,0,0,0,0,0,0,0,0,0,0,0,0,0,0,0,0,0,0,0,0,0,0,0,0,0,0,0,0,0,0,0,0,0,0,0,0,0,0,0,0,0,0,0,0,0,0,0,0,0,0,0,0,0,0,0,0,0,0,0],"id":4,"left_children":[1,3,5,7,9,11,13,15,17,19,21,23,25,27,29,31,33,35,37,39,41,43,45,47,49,51,53,55,57,59,61,63,65,67,69,71,73,75,77,79,81,83,85,87,89,91,93,95,97,99,101,103,105,107,109,111,113,115,117,119,121,123,125,-1,-1,-1,-1,-1,-1,-1,-1,-1,-1,-1,-1,-1,-1,-1,-1,-1,-1,-1,-1,-1,-1,-1,-1,-1,-1,-1,-1,-1,-1,-1,-1,-1,-1,-1,-1,-1,-1,-1,-1,-1,-1,-1,-1,-1,-1,-1,-1,-1,-1,-1,-1,-1,-1,-1,-1,-1,-1,-1,-1,-1,-1,-1,-1],"loss_changes":[1.8705324E11,7.519352E10,5.7111347E10,4.529429E10,2.0793786E10,2.1936669E10,2.9223846E10,1.1969102E10,2.308545E10,1.7343807E10,4.8495493E9,1.0568925E10,9.25705E9,1.9156894E10,6.7354173E9,5.582078E9,1.1336163E10,1.2973605E10,4.931363E9,5.557764E9,4.640506E9,2.3348838E9,3.153924E9,7.18866E9,1.5384715E10,3.3010412E9,5.4757786E9,1.1457135E10,2.1576E10,5.2549714E9,1.1973998E9,1.4590853E9,3.7584814E9,1.4318141E9,3.8689833E9,1.1965006E10,8.4714783E9,6.0515123E9,3.7174266E8,8.897966E8,6.084641E9,4.0871035E9,5.429555E8,2.2331884E9,4.42826E8,1.582719E9,3.8606048E8,2.640511E9,2.755076E9,5.1441254E9,4.5174497E9,2.9140586E8,3.7939732E9,1.14231E8,3.0329897E9,4.7419072E8,9.4382E9,3.4191688E9,1.0568098E10,3.007749E8,1.8207212E9,7.3357203E8,4.4323085E8,0E0,0E0,0E0,0E0,0E0,0E0,0E0,0E0,0E0,0E0,0E0,0E0,0E0,0E0,0E0,0E0,0E0,0E0,0E0,0E0,0E0,0E0,0E0,0E0,0E0,0E0,0E0,0E0,0E0,0E0,0E0,0E0,0E0,0E0,0E0,0E0,0E0,0E0,0E0,0E0,0E0,0E0,0E0,0E0,0E0,0E0,0E0,0E0,0E0,0E0,0E0,0E0,0E0,0E0,0E0,0E0,0E0,0E0,0E0,0E0,0E0,0E0,0E0,0E0],"parents":[2147483647,0,0,1,1,2,2,3,3,4,4,5,5,6,6,7,7,8,8,9,9,10,10,11,11,12,12,13,13,14,14,15,15,16,16,17,17,18,18,19,19,20,20,21,21,22,22,23,23,24,24,25,25,26,26,27,27,28,28,29,29,30,30,31,31,32,32,33,33,34,34,35,35,36,36,37,37,38,38,39,39,40,40,41,41,42,42,43,43,44,44,45,45,46,46,47,47,48,48,49,49,50,50,51,51,52,52,53,53,54,54,55,55,56,56,57,57,58,58,59,59,60,60,61,61,62,62],"right_children":[2,4,6,8,10,12,14,16,18,20,22,24,26,28,30,32,34,36,38,40,42,44,46,48,50,52,54,56,58,60,62,64,66,68,70,72,74,76,78,80,82,84,86,88,90,92,94,96,98,100,102,104,106,108,110,112,114,116,118,120,122,124,126,-1,-1,-1,-1,-1,-1,-1,-1,-1,-1,-1,-1,-1,-1,-1,-1,-1,-1,-1,-1,-1,-1,-1,-1,-1,-1,-1,-1,-1,-1,-1,-1,-1,-1,-1,-1,-1,-1,-1,-1,-1,-1,-1,-1,-1,-1,-1,-1,-1,-1,-1,-1,-1,-1,-1,-1,-1,-1,-1,-1,-1,-1,-1,-1],"split_conditions":[5.71E0,1.5E0,2.85E0,2.0175E3,4.1541E4,1.489E4,3.68375E4,2.05E0,4.5E0,1.45E0,1.6500001E0,5E-1,1.95E0,9.37E0,8.75905E4,5E-1,7E1,1.225E2,1.665E2,5E-1,2.0195E3,8.53115E4,1.260465E5,6.88E0,7.85E1,2.0165E3,2.0095E3,5.5E0,6.95E1,3.15E1,2.0095E3,4.12E0,2.62E0,5.68265E4,5.5E0,3.5E0,3.04E0,1.5E0,2.0185E3,4.455E0,5.65E1,1.84E2,1.59E2,1.3499999E0,1.34906E5,2.0155E3,1.626265E5,2.0195E3,2.4E0,3E0,1.035E2,5.14305E4,5.5E0,2.0045E3,5.865E0,2.0185E3,7.5E0,4.2E0,1.5E0,7.5E0,5E-1,1.5E0,7.865E0,1.2757542E3,1.8790306E3,2.0482952E3,9.463029E2,1.5532706E3,1.11249E3,2.6848457E3,1.3961963E3,1.8216569E3,2.566756E3,8.905084E3,3.2552847E3,1.2858358E3,2.4017095E3,2.2165744E2,-6.55328E2,1.4465195E3,2.121071E3,6.092191E2,1.0309185E3,1.4922683E3,6.5858514E2,2.337583E3,3.3882915E3,4.976415E2,7.944328E2,3.7725455E2,1.5511666E1,8.3310345E2,1.2001282E3,4.983508E2,1.0093788E1,1.921742E3,2.8325066E3,3.001037E3,6.8250693E3,2.0323267E3,6.1538247E3,1.4342223E3,3.1863416E3,6.5307404E2,1.3656876E2,1.0599965E3,2.7260122E3,-4.3846368E2,2.0390608E2,3.0819841E3,1.9814218E3,1.3815995E3,-1.6352321E2,4.435733E3,2.2057227E3,1.7106268E4,5.587623E3,8.7713545E3,2.9664287E3,1.1736333E3,1.9432512E3,4.504086E3,2.899885E3,-7.373801E2,1.2956718E3,9.0673303E2,2.3810205E3],"split_indices":[6,3,7,2,4,4,4,7,0,7,7,5,7,6,4,0,1,1,1,0,2,4,4,6,1,2,2,1,1,1,2,6,6,4,0,0,6,5,2,6,1,1,1,7,4,2,4,2,7,0,1,4,0,2,6,2,0,7,0,1,0,3,6,0,0,0,0,0,0,0,0,0,0,0,0,0,0,0,0,0,0,0,0,0,0,0,0,0,0,0,0,0,0,0,0,0,0,0,0,0,0,0,0,0,0,0,0,0,0,0,0,0,0,0,0,0,0,0,0,0,0,0,0,0,0,0,0],"split_type":[0,0,0,0,0,0,0,0,0,0,0,0,0,0,0,0,0,0,0,0,0,0,0,0,0,0,0,0,0,0,0,0,0,0,0,0,0,0,0,0,0,0,0,0,0,0,0,0,0,0,0,0,0,0,0,0,0,0,0,0,0,0,0,0,0,0,0,0,0,0,0,0,0,0,0,0,0,0,0,0,0,0,0,0,0,0,0,0,0,0,0,0,0,0,0,0,0,0,0,0,0,0,0,0,0,0,0,0,0,0,0,0,0,0,0,0,0,0,0,0,0,0,0,0,0,0,0],"sum_hessian":[7.7959E4,6.788E4,1.0079E4,2.6188E4,4.1692E4,7.185E3,2.894E3,1.412E4,1.2068E4,2.527E4,1.6422E4,4.171E3,3.014E3,2.168E3,7.26E2,1.0136E4,3.984E3,8.635E3,3.433E3,1.6668E4,8.602E3,1.1446E4,4.976E3,3.175E3,9.96E2,1.495E3,1.519E3,2.028E3,1.4E2,5.26E2,2E2,1.489E3,8.647E3,2.689E3,1.295E3,7.8E3,8.35E2,3.259E3,1.74E2,7.32E2,1.5936E4,8.22E3,3.82E2,9.24E3,2.206E3,4.338E3,6.38E2,2.351E3,8.24E2,2.33E2,7.63E2,4.42E2,1.053E3,1.06E2,1.413E3,1.12E2,1.916E3,2.5E1,1.15E2,2.1E2,3.16E2,8.6E1,1.14E2,6.6E2,8.29E2,2.88E2,8.359E3,1.372E3,1.317E3,1.027E3,2.68E2,4.033E3,3.767E3,2.4E1,8.11E2,2.737E3,5.22E2,9.6E1,7.8E1,3.88E2,3.44E2,4.18E3,1.1756E4,7.649E3,5.71E2,3.24E2,5.8E1,4.151E3,5.089E3,1.841E3,3.65E2,1.878E3,2.46E3,4.13E2,2.25E2,2.011E3,3.4E2,8.07E2,1.7E1,3.3E1,2E2,1.74E2,5.89E2,1.47E2,2.95E2,9.11E2,1.42E2,3.8E1,6.8E1,2.87E2,1.126E3,9E1,2.2E1,1.723E3,1.93E2,2.1E1,4E0,5.6E1,5.9E1,1.33E2,7.7E1,9.8E1,2.18E2,6.6E1,2E1,9.1E1,2.3E1],"tree_param":{"num_deleted":"0","num_feature":"9","num_nodes":"127","size_leaf_vector":"0"}},{"base_weights":[3.256444E3,5.3133193E3,2.6281785E3,4.6949907E3,1.0872315E4,1.9454733E3,3.6683389E3,3.734461E3,6.1679775E3,1.0023111E4,1.8391455E4,1.3397445E3,2.3281152E3,4.51629E3,2.400495E3,3.3936409E3,5.50733E3,5.7767227E3,8.212918E3,9.239386E3,1.2869038E4,1.3107726E4,3.351408E4,2.5695242E3,1.1677812E3,4.6581416E3,2.1913767E3,4.0423384E3,6.5786367E3,2.8202668E3,8.097846E2,2.8116147E3,4.184974E3,4.9298037E3,7.2175884E3,5.6289844E3,1.0846083E4,6.9810747E3,1.3781464E4,9.722669E3,4.92236E3,1.3096111E4,-5.509081E3,1.6722879E4,-1.6919075E3,3.7994266E4,2.1423389E4,2.0695544E3,4.6033193E3,9.282633E2,2.213717E3,3.6855762E3,5.4155093E3,1.9758143E3,3.5769802E3,3.295512E3,4.5864263E3,6.42551E3,2.2387693E4,4.341296E3,2.4805066E3,1.2342601E3,-2.9763925E2,2.7542861E3,1.1556905E4,3.249709E3,5.3815605E3,1.2111042E4,4.7729497E3,8.993304E3,6.5178555E3,5.2411787E3,7.3969883E3,1.2035755E4,7.415384E3,7.1465767E3,-2.730382E3,1.714362E4,1.0619714E4,4.362661E3,1.0213175E4,1.79337E3,6.2632974E3,1.1059686E4,1.600732E4,1.1425891E4,2.5487838E4,1.4038632E4,-8.686055E3,5.953515E3,3.1075135E4,1.1552538E3,2.479724E3,5.6490186E3,3.902435E3,6.99981E2,1.6620422E3,2.570758E3,-5.36993E2,2.7418684E3,4.2520674E3,5.2825415E3,7.6695845E3,1.5998428E3,2.6048306E3,2.5885566E3,4.704417E3,1.7107349E3,3.4971616E3,4.1325376E3,5.722674E3,3.8802234E3,6.9239766E3,1.1854879E4,2.8619244E4,3.5085024E3,6.5970503E3,2.069963E3,3.3082495E3,-1.0468489E3,1.3451599E3,-2.4006537E2,-6.5251797E3],"categories":[],"categories_nodes":[],"categories_segments":[],"categories_sizes":[],"default_left":[1,1,1,1,1,1,1,1,1,1,1,1,1,1,1,1,1,1,1,1,1,1,1,1,1,1,1,1,1,1,1,1,1,1,1,1,1,1,1,1,1,1,0,1,1,0,1,1,1,1,1,1,1,1,1,1,1,1,1,1,1,1,1,0,0,0,0,0,0,0,0,0,0,0,0,0,0,0,0,0,0,0,0,0,0,0,0,0,0,0,0,0,0,0,0,0,0,0,0,0,0,0,0,0,0,0,0,0,0,0,0,0,0,0,0,0,0,0,0,0,0,0,0],"id":5,"left_children":[1,3,5,7,9,11,13,15,17,19,21,23,25,27,29,31,33,35,37,39,41,43,45,47,49,51,53,55,57,59,61,63,65,67,69,71,73,75,77,79,81,83,-1,85,87,-1,89,91,93,95,97,99,101,103,105,107,109,111,113,115,117,119,121,-1,-1,-1,-1,-1,-1,-1,-1,-1,-1,-1,-1,-1,-1,-1,-1,-1,-1,-1,-1,-1,-1,-1,-1,-1,-1,-1,-1,-1,-1,-1,-1,-1,-1,-1,-1,-1,-1,-1,-1,-1,-1,-1,-1,-1,-1,-1,-1,-1,-1,-1,-1,-1,-1,-1,-1,-1,-1,-1,-1],"loss_changes":[1.00730995E11,6.2645043E10,4.240212E10,2.320312E10,1.1468816E10,8.3543E9,2.5429606E10,5.9867464E9,5.1355484E9,3.5434496E9,1.4263009E10,2.9496422E9,7.029981E9,1.3832716E10,6.331855E9,3.8289818E9,1.5457567E9,4.0139162E9,7.024034E9,2.6456064E9,1.5411118E9,7.4116977E9,1.7319608E9,1.7312973E9,3.0670715E9,8.8162714E8,6.227665E9,4.6707835E9,6.266413E9,3.8677053E9,9.320545E8,2.3786865E9,3.9352607E9,1.2938834E9,4.408791E8,3.587588E9,5.3520794E8,1.3889044E9,1.8058035E9,3.005227E9,5.426107E8,1.8860687E9,0E0,4.8622756E9,3.2025482E9,0E0,2.0546632E9,5.131612E8,2.2494669E8,1.6688988E9,2.2425702E9,2.764923E8,1.6509338E8,4.2683105E9,3.1181292E9,1.5484068E9,3.4157527E9,3.3023017E9,1.3016166E9,2.5486254E9,2.0786545E9,3.639209E8,1.9563258E8,0E0,0E0,0E0,0E0,0E0,0E0,0E0,0E0,0E0,0E0,0E0,0E0,0E0,0E0,0E0,0E0,0E0,0E0,0E0,0E0,0E0,0E0,0E0,0E0,0E0,0E0,0E0,0E0,0E0,0E0,0E0,0E0,0E0,0E0,0E0,0E0,0E0,0E0,0E0,0E0,0E0,0E0,0E0,0E0,0E0,0E0,0E0,0E0,0E0,0E0,0E0,0E0,0E0,0E0,0E0,0E0,0E0,0E0,0E0,0E0],"parents":[2147483647,0,0,1,1,2,2,3,3,4,4,5,5,6,6,7,7,8,8,9,9,10,10,11,11,12,12,13,13,14,14,15,15,16,16,17,17,18,18,19,19,20,20,21,21,22,22,23,23,24,24,25,25,26,26,27,27,28,28,29,29,30,30,31,31,32,32,33,33,34,34,35,35,36,36,37,37,38,38,39,39,40,40,41,41,43,43,44,44,46,46,47,47,48,48,49,49,50,50,51,51,52,52,53,53,54,54,55,55,56,56,57,57,58,58,59,59,60,60,61,61,62,62],"right_children":[2,4,6,8,10,12,14,16,18,20,22,24,26,28,30,32,34,36,38,40,42,44,46,48,50,52,54,56,58,60,62,64,66,68,70,72,74,76,78,80,82,84,-1,86,88,-1,90,92,94,96,98,100,102,104,106,108,110,112,114,116,118,120,122,-1,-1,-1,-1,-1,-1,-1,-1,-1,-1,-1,-1,-1,-1,-1,-1,-1,-1,-1,-1,-1,-1,-1,-1,-1,-1,-1,-1,-1,-1,-1,-1,-1,-1,-1,-1,-1,-1,-1,-1,-1,-1,-1,-1,-1,-1,-1,-1,-1,-1,-1,-1,-1,-1,-1,-1,-1,-1,-1,-1],"split_conditions":[1.12655E4,2.15E0,1.75E0,1.75E0,3.5E0,2.0165E3,5.42285E4,2.0195E3,6.365E0,2.0195E3,1.255E2,2.05E1,5E-1,5.71E0,1.117215E5,1.45E0,5.29E0,1.805E2,5E-1,4.5E0,1.875E2,4.7E0,1.435E2,1.55E1,7.5E0,4.29E0,7.5E0,3.95E0,5.1E0,5E-1,1.53668E5,5E-1,5.035E0,1.8699999E0,5E-1,2.0195E3,1.87E2,7.865E0,6.58E0,7.5E0,9.4E1,7.04E0,-1.6527244E3,9.195E0,9.965E0,1.139828E4,5.1E0,3.29E0,5.17435E4,1.115E2,1.665E2,3.79E0,5.71E0,4.37E0,1.3E0,6.5E0,2.05E0,1.65E1,2.0155E3,1.235E2,2.05E0,2.0075E3,1.1675E1,8.262859E2,3.4670718E3,9.749127E2,1.6144683E3,3.6333127E3,1.431885E3,2.6979912E3,1.9553567E3,1.5723536E3,2.2190967E3,3.6107266E3,2.2246152E3,2.1439731E3,-8.191147E2,5.143086E3,3.1859143E3,1.3087983E3,3.0639526E3,5.3801105E2,1.8789893E3,3.3179058E3,4.8021963E3,3.4277673E3,7.6463516E3,4.21159E3,-2.6058164E3,1.7860546E3,9.322541E3,3.4657614E2,7.4391724E2,1.6947057E3,1.1707306E3,2.0999431E2,4.986127E2,7.712275E2,-1.610979E2,8.2256055E2,1.2756202E3,1.5847626E3,2.3008755E3,4.7995285E2,7.814492E2,7.76567E2,1.4113252E3,5.1322046E2,1.0491486E3,1.2397614E3,1.7168022E3,1.164067E3,2.077193E3,3.5564639E3,8.585773E3,1.0525508E3,1.9791151E3,6.209889E2,9.924749E2,-3.140547E2,4.03548E2,-7.2019615E1,-1.957554E3],"split_indices":[4,7,7,7,7,2,4,2,6,2,1,1,0,6,4,7,6,1,5,0,1,7,1,1,0,6,0,6,7,0,4,5,6,6,0,2,1,6,6,1,1,6,0,6,6,0,7,6,4,1,1,6,6,6,7,1,7,1,2,1,7,2,6,0,0,0,0,0,0,0,0,0,0,0,0,0,0,0,0,0,0,0,0,0,0,0,0,0,0,0,0,0,0,0,0,0,0,0,0,0,0,0,0,0,0,0,0,0,0,0,0,0,0,0,0,0,0,0,0,0,0,0,0],"split_type":[0,0,0,0,0,0,0,0,0,0,0,0,0,0,0,0,0,0,0,0,0,0,0,0,0,0,0,0,0,0,0,0,0,0,0,0,0,0,0,0,0,0,0,0,0,0,0,0,0,0,0,0,0,0,0,0,0,0,0,0,0,0,0,0,0,0,0,0,0,0,0,0,0,0,0,0,0,0,0,0,0,0,0,0,0,0,0,0,0,0,0,0,0,0,0,0,0,0,0,0,0,0,0,0,0,0,0,0,0,0,0,0,0,0,0,0,0,0,0,0,0,0,0],"sum_hessian":[7.7959E4,1.8239E4,5.972E4,1.6415E4,1.824E3,3.6057E4,2.3663E4,9.938E3,6.477E3,1.641E3,1.83E2,1.3961E4,2.2096E4,1.4178E4,9.485E3,8.338E3,1.6E3,5.44E3,1.037E3,1.29E3,3.51E2,1.37E2,4.6E1,1.711E3,1.225E4,1.223E3,2.0873E4,1.1531E4,2.647E3,7.504E3,1.981E3,4.807E3,3.531E3,1.199E3,4.01E2,5.288E3,1.52E2,8.51E2,1.86E2,1.159E3,1.31E2,3.47E2,4E0,1.1E2,2.7E1,3.2E1,1.4E1,1.375E3,3.36E2,9.969E3,2.281E3,5.38E2,6.85E2,1.8065E4,2.808E3,4.863E3,6.668E3,2.623E3,2.4E1,1.368E3,6.136E3,1.432E3,5.49E2,4.777E3,3E1,1.984E3,1.547E3,2.4E1,1.175E3,1.1E2,2.91E2,4.34E3,9.48E2,1.11E2,4.1E1,8.37E2,1.4E1,8.8E1,9.8E1,9.8E1,1.061E3,4E1,9.1E1,2.07E2,1.4E2,7E1,4E1,8E0,1.9E1,6E0,8E0,4.27E2,9.48E2,1.32E2,2.04E2,7.605E3,2.364E3,2.019E3,2.62E2,2.04E2,3.34E2,6.5E2,3.5E1,1.1309E4,6.756E3,1.498E3,1.31E3,5.5E2,4.313E3,4.768E3,1.9E3,4.31E2,2.192E3,1E1,1.4E1,1.001E3,3.67E2,4.104E3,2.032E3,6.6E1,1.366E3,5.45E2,4E0],"tree_param":{"num_deleted":"0","num_feature":"9","num_nodes":"123","size_leaf_vector":"0"}},{"base_weights":[2.2810713E3,2.068123E3,5.372795E3,3.0120886E3,1.5613402E3,8.293744E3,4.211369E3,2.3583655E3,4.138124E3,1.9395074E3,1.091563E3,8.031608E3,2.3957639E4,2.8112678E3,5.718231E3,2.925412E3,1.8411279E3,5.450671E2,4.3306416E3,1.5893795E3,3.243049E3,6.0315106E2,2.0627854E3,8.221171E3,-4.8620034E3,2.5467668E4,5.4015625E3,1.4140411E3,4.0976777E3,3.9128094E4,5.5208926E3,2.397991E3,5.783908E3,1.2401095E3,3.0856116E3,2.919814E0,3.2763542E3,4.873846E3,3.114621E3,1.2760997E3,3.333257E3,2.9205815E3,5.0312227E3,4.6936685E2,2.0634011E3,2.2238125E3,-6.5472394E2,7.5942305E3,1.4169382E4,-1.1545374E4,1.8833855E4,-4.6013896E3,1.5356154E3,4.359428E3,-3.4092255E2,5.3205E3,1.7036203E4,1.9771346E3,4.740944E3,4.308169E3,7.583544E3,6.683913E2,1.9076583E3,3.4398926E3,-2.1664566E2,-2.607396E3,5.4705536E2,-1.6622168E2,3.7213457E3,3.8245974E3,5.5026714E3,6.0355547E3,2.6283367E3,1.4390493E3,-2.693311E2,3.2896445E3,3.0159969E4,3.7134302E3,2.318358E3,-3.0691965E2,5.548881E3,2.5370062E1,8.980775E2,7.2763086E2,2.6832104E3,1.8162084E3,4.1032207E3,-9.0061194E2,3.3086493E2,7.7072837E3,-8.92626E3,1.1373107E4,2.1514217E4,-1.8844954E3,-6.586456E3,1.2496317E3,3.1162732E3,2.72035E3,5.258953E3,-9.8700946E2,6.3173486E3,5.5257993E3,-3.3067827E3,1.8893322E4,6.768356E3],"categories":[],"categories_nodes":[],"categories_segments":[],"categories_sizes":[],"default_left":[1,1,1,1,1,1,1,1,1,1,1,1,1,1,1,1,1,1,1,1,1,1,1,1,1,0,0,1,1,0,1,1,1,1,1,1,1,1,1,1,1,1,1,1,1,1,1,1,1,0,0,1,1,1,1,1,1,0,0,0,0,0,0,0,0,0,0,0,0,0,0,0,0,0,0,0,0,0,0,0,0,0,0,0,0,0,0,0,0,0,0,0,0,0,0,0,0,0,0,0,0,0,0,0,0],"id":6,"left_children":[1,3,5,7,9,11,13,15,17,19,21,23,25,27,29,31,33,35,37,39,41,43,45,47,49,-1,-1,51,53,-1,55,57,59,61,63,65,67,69,71,73,75,77,79,81,83,85,87,89,91,-1,-1,93,95,97,99,101,103,-1,-1,-1,-1,-1,-1,-1,-1,-1,-1,-1,-1,-1,-1,-1,-1,-1,-1,-1,-1,-1,-1,-1,-1,-1,-1,-1,-1,-1,-1,-1,-1,-1,-1,-1,-1,-1,-1,-1,-1,-1,-1,-1,-1,-1,-1,-1,-1],"loss_changes":[5.1315966E10,3.4887795E10,1.7005429E10,1.8745E10,8.429527E9,5.6710595E9,7.5706204E9,4.723155E9,6.47014E9,1.1995136E10,1.004041E10,3.476439E9,5.0690048E8,3.3481656E9,1.1196551E10,1.1578307E10,6.3044465E9,7.063128E8,5.851136E9,1.1319902E10,3.1948186E9,2.7510446E9,3.100926E9,5.061026E9,3.5431764E9,0E0,0E0,6.623296E8,1.129598E9,0E0,3.883012E9,6.3930245E9,3.1463096E9,2.1699308E9,3.2133632E9,5.681523E8,1.2164006E8,4.0281047E9,3.8831473E9,4.4257526E9,3.5932488E9,2.2441042E9,2.347776E9,2.4565847E9,9.766523E8,5.1151565E9,9.650872E7,2.4146166E9,2.4458179E9,0E0,0E0,8.466573E7,3.9345088E8,1.3377126E9,2.4283549E8,3.0186496E9,4.251131E8,0E0,0E0,0E0,0E0,0E0,0E0,0E0,0E0,0E0,0E0,0E0,0E0,0E0,0E0,0E0,0E0,0E0,0E0,0E0,0E0,0E0,0E0,0E0,0E0,0E0,0E0,0E0,0E0,0E0,0E0,0E0,0E0,0E0,0E0,0E0,0E0,0E0,0E0,0E0,0E0,0E0,0E0,0E0,0E0,0E0,0E0,0E0,0E0],"parents":[2147483647,0,0,1,1,2,2,3,3,4,4,5,5,6,6,7,7,8,8,9,9,10,10,11,11,12,12,13,13,14,14,15,15,16,16,17,17,18,18,19,19,20,20,21,21,22,22,23,23,24,24,27,27,28,28,30,30,31,31,32,32,33,33,34,34,35,35,36,36,37,37,38,38,39,39,40,40,41,41,42,42,43,43,44,44,45,45,46,46,47,47,48,48,51,51,52,52,53,53,54,54,55,55,56,56],"right_children":[2,4,6,8,10,12,14,16,18,20,22,24,26,28,30,32,34,36,38,40,42,44,46,48,50,-1,-1,52,54,-1,56,58,60,62,64,66,68,70,72,74,76,78,80,82,84,86,88,90,92,-1,-1,94,96,98,100,102,104,-1,-1,-1,-1,-1,-1,-1,-1,-1,-1,-1,-1,-1,-1,-1,-1,-1,-1,-1,-1,-1,-1,-1,-1,-1,-1,-1,-1,-1,-1,-1,-1,-1,-1,-1,-1,-1,-1,-1,-1,-1,-1,-1,-1,-1,-1,-1,-1],"split_conditions":[2.75E0,1.8714E4,9.671E3,1.75E0,4.5E0,5.1E0,6.3E1,4.5E0,5.5E0,3.5E0,7.5E0,4.85E0,8.27E3,2.0165E3,6.95E1,3.5E0,7.5E0,1.5E0,4.5E0,1.145E2,4.87E0,1.5E0,1.665E2,3.5E0,1.5E0,7.640301E3,1.6204689E3,2.0065E3,6E0,1.1738429E4,5.1E0,1.175E2,3.65E1,7.95E1,1.665E2,3.62E0,3.495E0,3.8E1,5.3E1,2.5E0,1.935E2,2.05E0,2.0115E3,7.95E1,3.3E1,1.54E2,3.79E0,1.875E2,1.165E2,-3.4636123E3,5.6501567E3,3.85E0,6.455E0,7.5E0,8.4E0,4.6E0,1.435E2,5.9314044E2,1.4222832E3,1.2924507E3,2.2750632E3,2.005174E2,5.7229755E2,1.0319678E3,-6.49937E1,-7.822188E2,1.6411661E2,-4.9866505E1,1.1164038E3,1.1473793E3,1.6508015E3,1.8106665E3,7.8850104E2,4.317148E2,-8.079933E1,9.868934E2,9.047991E3,1.114029E3,6.955074E2,-9.20759E1,1.6646643E3,7.6110187E0,2.6942328E2,2.1828926E2,8.049632E2,5.4486255E2,1.2309663E3,-2.701836E2,9.925948E1,2.3121853E3,-2.677878E3,3.4119324E3,6.454265E3,-5.6534863E2,-1.9759369E3,3.7488953E2,9.34882E2,8.1610504E2,1.577686E3,-2.9610284E2,1.8952047E3,1.6577399E3,-9.9203485E2,5.667997E3,2.0305068E3],"split_indices":[7,4,4,7,0,7,1,0,1,0,0,7,4,2,1,0,0,3,0,1,6,5,1,7,3,0,0,2,0,0,7,1,1,1,1,6,6,1,1,0,1,7,2,1,1,1,6,1,1,0,0,7,6,1,6,7,1,0,0,0,0,0,0,0,0,0,0,0,0,0,0,0,0,0,0,0,0,0,0,0,0,0,0,0,0,0,0,0,0,0,0,0,0,0,0,0,0,0,0,0,0,0,0,0,0],"split_type":[0,0,0,0,0,0,0,0,0,0,0,0,0,0,0,0,0,0,0,0,0,0,0,0,0,0,0,0,0,0,0,0,0,0,0,0,0,0,0,0,0,0,0,0,0,0,0,0,0,0,0,0,0,0,0,0,0,0,0,0,0,0,0,0,0,0,0,0,0,0,0,0,0,0,0,0,0,0,0,0,0,0,0,0,0,0,0,0,0,0,0,0,0,0,0,0,0,0,0,0,0,0,0,0,0],"sum_hessian":[7.7959E4,7.2937E4,5.022E3,2.5477E4,4.746E4,1.427E3,3.595E3,1.6121E4,9.356E3,2.6292E4,2.1168E4,1.405E3,2.2E1,1.865E3,1.73E3,7.688E3,8.433E3,4.76E2,8.88E3,2.0727E4,5.565E3,1.4086E4,7.082E3,1.385E3,2E1,2E1,2E0,8.95E2,9.7E2,9E0,1.721E3,6.492E3,1.196E3,5.688E3,2.745E3,3.98E2,7.8E1,6.136E3,2.744E3,1.7572E4,3.155E3,4.717E3,8.48E2,1.2905E4,1.181E3,6.686E3,3.96E2,1.255E3,1.3E2,1.6E1,4E0,1.7E1,8.78E2,9.16E2,5.4E1,1.693E3,2.8E1,5.505E3,9.87E2,6.59E2,5.37E2,3.065E3,2.623E3,2.479E3,2.66E2,6.8E1,3.3E2,9E0,6.9E1,2.302E3,3.834E3,3.9E2,2.354E3,1.5896E4,1.676E3,3.151E3,4E0,2.034E3,2.683E3,7.5E1,7.73E2,6.34E3,6.565E3,3.75E2,8.06E2,5.496E3,1.19E3,3.17E2,7.9E1,1.247E3,8E0,9.6E1,3.4E1,8E0,9E0,7.45E2,1.33E2,3.26E2,5.9E2,5E1,4E0,1.654E3,3.9E1,2.3E1,5E0],"tree_param":{"num_deleted":"0","num_feature":"9","num_nodes":"105","size_leaf_vector":"0"}},{"base_weights":[1.5976946E3,2.9187004E3,1.3184559E3,2.6122986E3,6.069041E3,2.6855037E3,1.1618541E3,2.0676848E3,3.4232266E3,2.141504E4,5.7655522E3,2.1583093E3,5.157196E3,1.3795713E3,4.7357214E2,2.2246484E3,3.6653625E2,1.104598E4,3.3654868E3,1.1811148E4,4.1679484E4,4.7949653E3,7.7418975E3,1.4036785E3,2.8384875E3,4.408123E3,9.140442E3,1.0503749E3,2.0123452E3,6.577353E2,-3.2893927E2,1.954295E3,3.6981692E3,1.9971248E2,1.7627314E4,1.2518031E4,-8.787547E2,9.8238525E2,3.6015652E3,1.90394E4,7.2127603E3,1.5791065E4,4.887664E4,4.6675815E3,2.8850016E4,1.5314179E4,5.0237285E3,4.9038794E2,1.6931334E3,2.242749E3,3.4770034E3,4.0753484E3,9.442742E3,1.0076021E4,-2.0097806E3,7.487039E3,1.0284061E3,1.9941437E3,1.5555629E4,9.9001764E2,2.6080615E2,-1.6690063E2,-1.301158E3,2.7686372E3,1.5637129E3,3.175746E3,5.7054365E3,1.6940181E3,-3.785295E2,8.57834E3,1.4360792E4,-3.481953E2,-1.1163959E3,2.401885E3,-1.4582256E3,4.0233887E3,2.5585312E3,6.2010547E2,8.46928E3,3.7364878E3,7.016046E3,5.907869E3,3.452811E4,1.3191814E4,2.0201795E4,1.8634575E3,8.470277E3,-1.1589614E3,5.963247E2,8.435393E2,2.068932E3,2.4427156E3,7.4048346E2,4.281833E3,2.894807E3,4.901748E3,2.4699517E3,7.753434E3,1.711394E4,5.854958E3,1.3716122E4,7.313383E3,-4.0066814E3,6.4303E3,2.261866E4,7.727435E2,1.4438835E3,2.3404038E3,1.4459027E3,3.5431242E4,9.963978E3,8.7325854E2,4.0718948E3,-4.967804E2,6.6688513E2,-9.6869037E2,-3.6884052E1,-1.1286437E3,-2.3826765E3],"categories":[],"categories_nodes":[],"categories_segments":[],"categories_sizes":[],"default_left":[1,1,1,1,1,1,1,1,1,1,1,1,1,1,1,1,1,1,1,1,1,1,1,1,1,1,1,1,1,1,1,1,1,1,0,1,1,1,1,0,1,0,0,1,1,1,1,1,1,1,1,1,1,1,1,1,1,1,1,1,1,1,1,0,0,0,0,0,0,0,0,0,0,0,0,0,0,0,0,0,0,0,0,0,0,0,0,0,0,0,0,0,0,0,0,0,0,0,0,0,0,0,0,0,0,0,0,0,0,0,0,0,0,0,0,0,0,0,0],"id":7,"left_children":[1,3,5,7,9,11,13,15,17,19,21,23,25,27,29,31,33,35,37,39,41,43,45,47,49,51,53,55,57,59,61,63,65,67,-1,69,71,73,75,-1,77,-1,-1,79,81,83,85,87,89,91,93,95,97,99,101,103,105,107,109,111,113,115,117,-1,-1,-1,-1,-1,-1,-1,-1,-1,-1,-1,-1,-1,-1,-1,-1,-1,-1,-1,-1,-1,-1,-1,-1,-1,-1,-1,-1,-1,-1,-1,-1,-1,-1,-1,-1,-1,-1,-1,-1,-1,-1,-1,-1,-1,-1,-1,-1,-1,-1,-1,-1,-1,-1,-1,-1],"loss_changes":[2.8753723E10,1.311472E10,1.3774791E10,5.468848E9,5.4886236E9,8.607326E9,8.652472E9,1.980461E9,2.1546967E9,3.9839212E9,2.2321275E9,2.7949527E9,3.426816E9,9.135899E9,2.0512878E9,2.6989056E9,1.8048108E9,6.604918E8,2.7779523E9,4.277248E8,5.3244723E8,2.3044567E9,7.909171E9,6.830597E8,1.0827756E9,1.6034017E9,1.9292928E9,4.0729784E9,3.6693238E9,1.4885453E9,4.079612E8,1.8220134E9,1.0850529E9,5.3895706E8,0E0,1.1638477E8,2.4168975E5,1.5521101E9,1.9687178E9,0E0,9.415379E7,0E0,0E0,1.7077924E9,3.1708288E8,7.915786E8,3.110227E9,1.0972062E8,6.253133E8,4.4458957E8,6.351667E8,1.2097823E9,6.4484864E8,2.516393E9,3.0856384E8,1.4215931E9,3.0539366E9,2.8426117E9,1.8697134E9,2.2072832E9,1.583139E9,2.3159877E8,6.6344384E7,0E0,0E0,0E0,0E0,0E0,0E0,0E0,0E0,0E0,0E0,0E0,0E0,0E0,0E0,0E0,0E0,0E0,0E0,0E0,0E0,0E0,0E0,0E0,0E0,0E0,0E0,0E0,0E0,0E0,0E0,0E0,0E0,0E0,0E0,0E0,0E0,0E0,0E0,0E0,0E0,0E0,0E0,0E0,0E0,0E0,0E0,0E0,0E0,0E0,0E0,0E0,0E0,0E0,0E0,0E0,0E0],"parents":[2147483647,0,0,1,1,2,2,3,3,4,4,5,5,6,6,7,7,8,8,9,9,10,10,11,11,12,12,13,13,14,14,15,15,16,16,17,17,18,18,19,19,20,20,21,21,22,22,23,23,24,24,25,25,26,26,27,27,28,28,29,29,30,30,31,31,32,32,33,33,35,35,36,36,37,37,38,38,40,40,43,43,44,44,45,45,46,46,47,47,48,48,49,49,50,50,51,51,52,52,53,53,54,54,55,55,56,56,57,57,58,58,59,59,60,60,61,61,62,62],"right_children":[2,4,6,8,10,12,14,16,18,20,22,24,26,28,30,32,34,36,38,40,42,44,46,48,50,52,54,56,58,60,62,64,66,68,-1,70,72,74,76,-1,78,-1,-1,80,82,84,86,88,90,92,94,96,98,100,102,104,106,108,110,112,114,116,118,-1,-1,-1,-1,-1,-1,-1,-1,-1,-1,-1,-1,-1,-1,-1,-1,-1,-1,-1,-1,-1,-1,-1,-1,-1,-1,-1,-1,-1,-1,-1,-1,-1,-1,-1,-1,-1,-1,-1,-1,-1,-1,-1,-1,-1,-1,-1,-1,-1,-1,-1,-1,-1,-1,-1,-1],"split_conditions":[8.0535E3,2.85E0,5E-1,1.95E0,2.0175E3,1.235E2,5.81785E4,1.665E2,2.625E0,7E0,1.255E2,2.0165E3,7.125E0,1.6500001E0,1.117435E5,1.195E2,1.935E2,2.25E0,3.79E0,7.335E2,8.75E1,1.0940001E1,1.435E2,2.0145E3,1.55E1,3.5E0,1.335E2,2.37E0,1.0915E1,4.5E0,1.720945E5,5.55E1,5.785E0,4E0,5.2881943E3,9E0,5E-1,6.15E1,4.5E0,5.7118203E3,7.5E0,4.73732E3,1.4662993E4,2.0195E3,3E0,3.5E0,1.825E2,2.0085E3,3.54E0,5.71E0,7.05E1,5.9945E4,6.16E0,1.255E2,3.86875E4,1.935E2,4.37E0,7.95E1,1.107E1,1.8E2,5.5E0,2.0095E3,2.261115E5,8.305912E2,4.691139E2,9.527239E2,1.711631E3,5.0820544E2,-1.1355886E2,2.573502E3,4.308238E3,-1.04458595E2,-3.3491876E2,7.2056555E2,-4.3746768E2,1.2070166E3,7.675594E2,1.8603165E2,2.5407842E3,1.1209464E3,2.104814E3,1.7723608E3,1.0358434E4,3.9575444E3,6.0605386E3,5.590373E2,2.5410833E3,-3.4768845E2,1.7889742E2,2.530618E2,6.2067957E2,7.328147E2,2.2214505E2,1.2845499E3,8.684421E2,1.4705244E3,7.4098553E2,2.3260303E3,5.134182E3,1.7564874E3,4.114837E3,2.194015E3,-1.2020045E3,1.92909E3,6.785598E3,2.3182307E2,4.3316507E2,7.0212115E2,4.3377084E2,1.0629373E4,2.9891934E3,2.6197757E2,1.2215685E3,-1.4903412E2,2.0006555E2,-2.9060712E2,-1.1065216E1,-3.385931E2,-7.14803E2],"split_indices":[4,7,0,7,2,1,4,1,6,6,1,2,6,7,4,1,1,7,6,4,1,6,1,2,1,7,1,6,6,0,4,1,6,0,0,1,3,1,0,0,1,0,0,2,0,7,1,2,6,6,1,4,6,1,4,1,6,1,6,1,0,2,4,0,0,0,0,0,0,0,0,0,0,0,0,0,0,0,0,0,0,0,0,0,0,0,0,0,0,0,0,0,0,0,0,0,0,0,0,0,0,0,0,0,0,0,0,0,0,0,0,0,0,0,0,0,0,0,0],"split_type":[0,0,0,0,0,0,0,0,0,0,0,0,0,0,0,0,0,0,0,0,0,0,0,0,0,0,0,0,0,0,0,0,0,0,0,0,0,0,0,0,0,0,0,0,0,0,0,0,0,0,0,0,0,0,0,0,0,0,0,0,0,0,0,0,0,0,0,0,0,0,0,0,0,0,0,0,0,0,0,0,0,0,0,0,0,0,0,0,0,0,0,0,0,0,0,0,0,0,0,0,0,0,0,0,0,0,0,0,0,0,0,0,0,0,0,0,0,0,0],"sum_hessian":[7.7959E4,1.3602E4,6.4357E4,1.2398E4,1.204E3,6.613E3,5.7744E4,7.419E3,4.979E3,2.2E1,1.182E3,5.452E3,1.161E3,4.3867E4,1.3877E4,6.792E3,6.27E2,3.6E1,4.943E3,1.6E1,6E0,7.95E2,3.87E2,2.586E3,2.866E3,9.79E2,1.82E2,2.8857E4,1.501E4,1.1287E4,2.59E3,5.741E3,1.051E3,6.22E2,5E0,3.2E1,4E0,4.46E2,4.497E3,5E0,1.1E1,2E0,4E0,7.92E2,3E0,1.01E2,2.86E2,6.23E2,1.963E3,1.485E3,1.381E3,9.2E2,5.9E1,1.68E2,1.4E1,9.7E1,2.876E4,1.4991E4,1.9E1,6.143E3,5.144E3,2.221E3,3.69E2,1.859E3,3.882E3,8.36E2,2.15E2,1.73E2,4.49E2,1.2E1,2E1,2E0,2E0,2.82E2,1.64E2,3.2E3,1.297E3,2E0,9E0,5.69E2,2.23E2,1E0,2E0,7.3E1,2.8E1,1.5E2,1.36E2,3.7E1,5.86E2,6.03E2,1.36E3,1.31E3,1.75E2,5.77E2,8.04E2,6.06E2,3.14E2,5E1,9E0,7.9E1,8.9E1,2E0,1.2E1,9.2E1,5E0,1.7806E4,1.0954E4,9.186E3,5.805E3,3E0,1.6E1,5.92E3,2.23E2,1.795E3,3.349E3,3.09E2,1.912E3,3.2E2,4.9E1],"tree_param":{"num_deleted":"0","num_feature":"9","num_nodes":"119","size_leaf_vector":"0"}},{"base_weights":[1.1199167E3,1.0289559E3,3.4504968E3,2.1097058E3,9.055837E2,3.9349077E3,-2.690352E1,2.6267815E3,1.4229714E3,1.1760175E3,5.424402E2,3.777199E3,1.21425E4,8.1946704E2,-2.3541423E3,2.0129547E3,4.2898423E3,4.6817163E2,1.7973711E3,9.028313E2,2.1668066E3,2.1330399E2,1.1736973E3,3.572526E3,1.0502491E4,6.5014087E3,1.4052009E4,-2.1720325E3,2.3021365E3,-3.04731E3,1.4350542E4,2.7696926E3,7.5528754E2,1.0410125E3,5.52736E3,6.6544824E3,3.597211E2,1.9128492E3,-3.3058704E2,1.4627415E3,4.366539E2,1.7363293E3,4.27115E3,-8.686304E1,5.353091E2,1.1268696E3,6.4782607E3,3.0744075E3,6.0434707E3,1.3469302E4,-7.7137207E3,-2.4629805E3,8.200722E3,1.2045527E4,3.1439297E4,-1.4800856E3,-4.309192E3,1.7396349E3,7.1742534E3,-3.3077651E3,1.0457273E4,1.852387E3,3.4931738E3,1.890647E3,-4.1963763E2,3.4645503E3,-2.5654604E3,5.682736E3,-5.8613633E3,1.667244E3,1.2595293E2,1.3777491E3,2.353526E3,-4.336824E2,6.1235244E3,5.0809113E2,1.9226722E3,-8.194742E2,6.6144696E2,2.519885E3,6.111996E2,-9.691663E2,4.691594E3,4.4221287E1,-2.4797551E3,1.1911561E2,1.6546545E3,8.2643396E2,1.8685399E3,7.0450903E3,8.4593317E2,3.2344275E3,-2.9888813E3,8.17616E3,4.8951978E3,7.0404707E3,1.6027242E4,9.4507324E2,-8.674107E3,-3.8975273E3,2.0305664E2,2.292929E3,1.0868002E4,1.445321E4,4.0191294E3,-1.9272831E3,3.4621702E3,-4.6086045E3,8.395303E2,2.715535E3,-8.949093E2,8.882542E3,-1.0253909E3,-1.1844928E3,-4.714612E3],"categories":[],"categories_nodes":[],"categories_segments":[],"categories_sizes":[],"default_left":[1,1,1,1,1,1,1,1,1,1,1,1,1,1,1,1,1,1,1,1,1,1,1,1,1,1,1,1,1,1,0,1,1,1,1,0,1,1,1,1,1,1,1,1,1,1,1,1,1,1,1,1,1,1,0,1,1,1,1,1,0,0,0,0,0,0,0,0,0,0,0,0,0,0,0,0,0,0,0,0,0,0,0,0,0,0,0,0,0,0,0,0,0,0,0,0,0,0,0,0,0,0,0,0,0,0,0,0,0,0,0,0,0,0,0],"id":8,"left_children":[1,3,5,7,9,11,13,15,17,19,21,23,25,27,29,31,33,35,37,39,41,43,45,47,49,51,53,55,57,59,-1,61,63,65,67,-1,69,71,73,75,77,79,81,83,85,87,89,91,93,95,97,99,101,103,-1,105,107,109,111,113,-1,-1,-1,-1,-1,-1,-1,-1,-1,-1,-1,-1,-1,-1,-1,-1,-1,-1,-1,-1,-1,-1,-1,-1,-1,-1,-1,-1,-1,-1,-1,-1,-1,-1,-1,-1,-1,-1,-1,-1,-1,-1,-1,-1,-1,-1,-1,-1,-1,-1,-1,-1,-1,-1,-1],"loss_changes":[1.6523289E10,1.0002579E10,4.9322926E9,2.7258675E9,6.6132623E9,3.280769E9,7.0905376E8,4.46669E9,1.1802614E9,1.0445902E10,5.9727104E9,3.4353562E9,4.2568448E8,1.1759471E9,1.1553288E9,3.0472335E9,4.742439E9,6.2289325E8,5.837563E8,7.8974894E9,7.5493704E9,1.8265417E9,2.439941E9,2.9969347E9,4.1031567E9,2.3346451E8,8.423516E8,1.2375645E8,4.7260083E8,3.617024E8,0E0,1.3208351E9,1.6082181E9,2.867007E9,1.5462584E9,0E0,2.800777E8,5.2755763E8,8.449851E7,6.0349624E9,4.663299E9,6.1053174E9,3.1243612E9,3.068122E9,4.247087E9,2.1747794E9,2.6860134E8,1.9899433E9,9.640284E8,9.396132E8,9.967136E7,1.2265084E7,1.6417331E8,5.796357E8,0E0,1.569638E8,3.624253E7,4.1379846E8,2.6124051E8,2.6923046E8,0E0,0E0,0E0,0E0,0E0,0E0,0E0,0E0,0E0,0E0,0E0,0E0,0E0,0E0,0E0,0E0,0E0,0E0,0E0,0E0,0E0,0E0,0E0,0E0,0E0,0E0,0E0,0E0,0E0,0E0,0E0,0E0,0E0,0E0,0E0,0E0,0E0,0E0,0E0,0E0,0E0,0E0,0E0,0E0,0E0,0E0,0E0,0E0,0E0,0E0,0E0,0E0,0E0,0E0,0E0],"parents":[2147483647,0,0,1,1,2,2,3,3,4,4,5,5,6,6,7,7,8,8,9,9,10,10,11,11,12,12,13,13,14,14,15,15,16,16,17,17,18,18,19,19,20,20,21,21,22,22,23,23,24,24,25,25,26,26,27,27,28,28,29,29,31,31,32,32,33,33,34,34,36,36,37,37,38,38,39,39,40,40,41,41,42,42,43,43,44,44,45,45,46,46,47,47,48,48,49,49,50,50,51,51,52,52,53,53,55,55,56,56,57,57,58,58,59,59],"right_children":[2,4,6,8,10,12,14,16,18,20,22,24,26,28,30,32,34,36,38,40,42,44,46,48,50,52,54,56,58,60,-1,62,64,66,68,-1,70,72,74,76,78,80,82,84,86,88,90,92,94,96,98,100,102,104,-1,106,108,110,112,114,-1,-1,-1,-1,-1,-1,-1,-1,-1,-1,-1,-1,-1,-1,-1,-1,-1,-1,-1,-1,-1,-1,-1,-1,-1,-1,-1,-1,-1,-1,-1,-1,-1,-1,-1,-1,-1,-1,-1,-1,-1,-1,-1,-1,-1,-1,-1,-1,-1,-1,-1,-1,-1,-1,-1],"split_conditions":[6.88E0,4.9505E3,4.6512E4,4.5E0,4.5E0,5.1E0,5E-1,3.5E0,4.455E0,3.5E0,7.5E0,1.835E2,7.35E1,2.0065E3,9.035E0,1.5E0,3.65E1,2.2E0,1.725E2,1.5E0,6.95E1,5.5E0,1.5E0,2.0195E3,1.895E2,2.0145E3,5.75E0,3.35E0,1.0165E1,4.3E0,4.3051626E3,5E-1,1.05E0,1.55E0,1.745E2,1.9963448E3,3.05E1,6.5E0,5.995E0,7.5E0,1.5E0,2.05E0,3.79E0,1.95E0,4.2650003E0,1.505E2,1.058785E5,4.55E0,7.45E1,1.845E2,2.013E3,3.5193E4,9.88E0,1.0940001E1,9.431789E3,9.74E0,1.5E0,8.21E0,1.335E2,2.0115E3,3.1371821E3,5.557161E2,1.0479521E3,5.671941E2,-1.258913E2,1.0393651E3,-7.696382E2,1.7048208E3,-1.758409E3,5.0017322E2,3.778588E1,4.1332477E2,7.060578E2,-1.3010472E2,1.8370574E3,1.5242734E2,5.768017E2,-2.4584227E2,1.984341E2,7.559655E2,1.8335988E2,-2.907499E2,1.4074783E3,1.3266387E1,-7.439266E2,3.5734684E1,4.963964E2,2.4793019E2,5.60562E2,2.113527E3,2.5377995E2,9.703283E2,-8.966644E2,2.4528481E3,1.4685593E3,2.1121414E3,4.808173E3,2.8352197E2,-2.6022324E3,-1.1692583E3,6.0916996E1,6.878787E2,3.2604006E3,4.3359634E3,1.2057389E3,-5.7818494E2,1.0386511E3,-1.3825814E3,2.5185909E2,8.146605E2,-2.684728E2,2.6647627E3,-3.0761728E2,-3.5534784E2,-1.4143835E3],"split_indices":[6,4,4,0,0,7,5,0,6,0,0,1,1,2,6,0,1,6,1,0,1,0,5,2,1,2,7,7,6,7,0,5,7,7,1,0,1,0,6,1,3,7,6,7,6,1,4,7,1,1,2,4,6,6,0,6,3,6,1,2,0,0,0,0,0,0,0,0,0,0,0,0,0,0,0,0,0,0,0,0,0,0,0,0,0,0,0,0,0,0,0,0,0,0,0,0,0,0,0,0,0,0,0,0,0,0,0,0,0,0,0,0,0,0,0],"split_type":[0,0,0,0,0,0,0,0,0,0,0,0,0,0,0,0,0,0,0,0,0,0,0,0,0,0,0,0,0,0,0,0,0,0,0,0,0,0,0,0,0,0,0,0,0,0,0,0,0,0,0,0,0,0,0,0,0,0,0,0,0,0,0,0,0,0,0,0,0,0,0,0,0,0,0,0,0,0,0,0,0,0,0,0,0,0,0,0,0,0,0,0,0,0,0,0,0,0,0,0,0,0,0,0,0,0,0,0,0,0,0,0,0,0,0],"sum_hessian":[7.7959E4,7.5032E4,2.927E3,7.686E3,6.7346E4,2.569E3,3.58E2,4.383E3,3.303E3,3.8599E4,2.8747E4,2.522E3,4.7E1,2.63E2,9.5E1,3.203E3,1.18E3,9.31E2,2.372E3,3.0258E4,8.341E3,1.8896E4,9.851E3,2.449E3,7.3E1,1.3E1,3.4E1,8.7E1,1.76E2,9.2E1,3E0,1.999E3,1.204E3,3.26E2,8.54E2,1.5E1,9.16E2,2.25E3,1.22E2,1.3746E4,1.6512E4,6.926E3,1.415E3,9.78E3,9.116E3,9.766E3,8.5E1,2.04E3,4.09E2,6.3E1,1E1,2E0,1.1E1,3.2E1,2E0,6.7E1,2E1,1.59E2,1.7E1,9.1E1,1E0,8.83E2,1.116E3,6.12E2,5.92E2,1.95E2,1.31E2,8.43E2,1.1E1,1.38E2,7.78E2,1.018E3,1.232E3,1.21E2,1E0,4.47E3,9.276E3,2.506E3,1.4006E4,4.082E3,2.844E3,1.05E2,1.31E3,9.273E3,5.07E2,6.646E3,2.47E3,6.952E3,2.814E3,7.7E1,8E0,1.988E3,5.2E1,1.41E2,2.68E2,1.9E1,4.4E1,1E0,9E0,1E0,1E0,4E0,7E0,2.4E1,8E0,6.2E1,5E0,1.9E1,1E0,1.16E2,4.3E1,1.4E1,3E0,3.7E1,5.4E1],"tree_param":{"num_deleted":"0","num_feature":"9","num_nodes":"115","size_leaf_vector":"0"}},{"base_weights":[7.845529E2,1.105843E3,3.7404022E2,9.763252E2,2.650311E3,-2.0539423E2,5.187265E2,6.2239976E3,9.526557E2,2.4388625E3,6.210774E3,-1.311349E3,-1.13811485E2,4.5645203E2,1.7002461E3,5.6637515E3,1.5237832E4,5.9310205E2,1.213972E3,2.1509187E3,5.210352E3,2.2129107E4,3.1872693E3,-1.2320074E3,-4.587311E3,-1.5542186E2,1.7235052E3,5.228711E2,-3.094578E2,1.4117153E3,4.2888247E3,1.8475245E3,6.4896772E3,2.0056305E4,8.682798E3,6.768407E2,-4.637496E2,9.759393E2,1.9625978E3,2.5380452E3,-5.003274E3,5.5890947E3,-6.332098E3,2.5935842E4,-2.0917344E3,3.736977E2,6.5353105E3,-1.3372032E3,1.9097068E3,-6.194897E3,-1.0977107E3,1.8949445E2,-2.654527E2,7.950901E2,6.177717E3,2.4844019E2,7.44756E2,-4.7381052E2,6.045314E2,2.165292E3,6.8929126E2,3.7020989E3,1.2222021E4,1.066077E3,4.0586074E3,3.8013186E3,7.7934165E3,4.936216E1,8.740651E2,-1.8818201E3,1.4943031E2,8.785735E2,1.9047517E3,1.758494E3,5.8569463E3,1.9001204E3,4.565444E3,-5.1200696E2,-6.084397E3,4.623702E3,1.1531341E4,-8.89043E3,-1.9956813E3,1.9287096E4,3.464513E4,-7.1330723E3,9.036809E3,2.900159E3,-3.9249548E3,2.2839195E4,5.9916567E3,-3.0782324E3,-1.1777308E3,6.91342E3,-1.616988E2,-1.5233435E3,3.0241016E2,7.836921E1,1.5609929E3,-7.3214984E2,-9.503703E1,5.4667285E2,7.676209E3,7.627755E3,-8.579791E2,-5.382535E0,6.3042267E2,3.4206396E2,9.2736237E2,-1.2852142E3,-2.4584856E2,9.119949E1,1.2959032E3,1.4088066E2,2.720213E3,-2.6457627E3,1.306297E3,1.0259038E3,5.382907E3,1.4456241E4,5.8151855E3],"categories":[],"categories_nodes":[],"categories_segments":[],"categories_sizes":[],"default_left":[1,1,1,1,1,1,1,1,1,1,1,1,1,1,1,1,1,1,1,1,1,1,1,1,1,1,1,1,1,1,1,1,1,0,0,1,1,1,1,1,1,1,1,1,1,1,1,1,1,0,1,1,1,1,1,1,1,1,1,1,1,1,1,0,0,0,0,0,0,0,0,0,0,0,0,0,0,0,0,0,0,0,0,0,0,0,0,0,0,0,0,0,0,0,0,0,0,0,0,0,0,0,0,0,0,0,0,0,0,0,0,0,0,0,0,0,0,0,0,0,0],"id":9,"left_children":[1,3,5,7,9,11,13,15,17,19,21,23,25,27,29,31,33,35,37,39,41,43,45,47,49,51,53,55,57,59,61,63,65,-1,-1,67,69,71,73,75,77,79,81,83,85,87,89,91,93,-1,95,97,99,101,103,105,107,109,111,113,115,117,119,-1,-1,-1,-1,-1,-1,-1,-1,-1,-1,-1,-1,-1,-1,-1,-1,-1,-1,-1,-1,-1,-1,-1,-1,-1,-1,-1,-1,-1,-1,-1,-1,-1,-1,-1,-1,-1,-1,-1,-1,-1,-1,-1,-1,-1,-1,-1,-1,-1,-1,-1,-1,-1,-1,-1,-1,-1,-1],"loss_changes":[1.0282017E10,8.745394E9,2.8697364E9,5.005943E9,2.531758E9,6.926495E8,2.0145398E9,8.2774016E8,3.7735424E9,2.5385103E9,9.02588E9,1.3028653E8,4.8328813E8,1.3238262E9,1.01792435E9,5.3014016E8,1.4170778E8,1.4967485E9,4.143313E9,8.0333957E9,1.3468754E9,2.8203192E9,1.5047505E9,1.7176717E8,6.051781E7,2.345522E8,5.740383E8,1.4578145E9,3.122863E8,6.7084365E8,5.924342E8,5.0964256E7,4.6456832E8,0E0,0E0,1.9389363E9,1.0802403E9,1.5946772E9,4.449612E9,3.545389E9,7.203704E8,1.6160348E9,9.319747E7,8.373494E8,3.4497392E8,9.670964E8,5.1020314E8,1.3408717E8,1.7731814E8,0E0,3.4403615E6,2.2772776E8,3.7254022E8,1.9580208E8,2.5139309E8,1.03801235E9,9.732009E8,3.2541472E8,1.1238616E8,6.781432E8,1.3039525E9,5.747416E8,4.476288E7,0E0,0E0,0E0,0E0,0E0,0E0,0E0,0E0,0E0,0E0,0E0,0E0,0E0,0E0,0E0,0E0,0E0,0E0,0E0,0E0,0E0,0E0,0E0,0E0,0E0,0E0,0E0,0E0,0E0,0E0,0E0,0E0,0E0,0E0,0E0,0E0,0E0,0E0,0E0,0E0,0E0,0E0,0E0,0E0,0E0,0E0,0E0,0E0,0E0,0E0,0E0,0E0,0E0,0E0,0E0,0E0,0E0,0E0],"parents":[2147483647,0,0,1,1,2,2,3,3,4,4,5,5,6,6,7,7,8,8,9,9,10,10,11,11,12,12,13,13,14,14,15,15,16,16,17,17,18,18,19,19,20,20,21,21,22,22,23,23,24,24,25,25,26,26,27,27,28,28,29,29,30,30,31,31,32,32,35,35,36,36,37,37,38,38,39,39,40,40,41,41,42,42,43,43,44,44,45,45,46,46,47,47,48,48,50,50,51,51,52,52,53,53,54,54,55,55,56,56,57,57,58,58,59,59,60,60,61,61,62,62],"right_children":[2,4,6,8,10,12,14,16,18,20,22,24,26,28,30,32,34,36,38,40,42,44,46,48,50,52,54,56,58,60,62,64,66,-1,-1,68,70,72,74,76,78,80,82,84,86,88,90,92,94,-1,96,98,100,102,104,106,108,110,112,114,116,118,120,-1,-1,-1,-1,-1,-1,-1,-1,-1,-1,-1,-1,-1,-1,-1,-1,-1,-1,-1,-1,-1,-1,-1,-1,-1,-1,-1,-1,-1,-1,-1,-1,-1,-1,-1,-1,-1,-1,-1,-1,-1,-1,-1,-1,-1,-1,-1,-1,-1,-1,-1,-1,-1,-1,-1,-1,-1,-1],"split_conditions":[3.3399E4,2.15E0,2.0145E3,2.29E0,8.775E0,2.0085E3,5.71E0,1.935E2,4.325E0,1.825E2,6.95E1,4.25E0,6.615E0,9.70675E4,3.75E0,7E0,2.0185E3,1.685E2,5E-1,1.745E2,1.895E2,4.2E0,1.205E2,9.8E0,5.1E0,1.5E0,6.5E0,5E-1,2.05E0,8.15E1,1.012E1,1.915E0,2.0185E3,6.0168916E3,2.6048394E3,3.55E1,1.15E0,2.0195E3,6.365E0,1.255E2,2.0185E3,1.845E2,2.0195E3,1.0525E1,5.35E1,1.115E2,2.0125E3,8.0791E4,9.73645E4,-1.8584691E3,1.213E1,1.8E2,1.5E0,1.0575E1,1.325E2,4.37E0,3.46E0,5E-1,5E-1,6.5E0,9.7E1,1.2E2,2.0175E3,3.1982312E2,1.2175823E3,1.1403956E3,2.3380251E3,1.4808648E1,2.6221954E2,-5.64546E2,4.4829094E1,2.6357205E2,5.7142554E2,5.275482E2,1.757084E3,5.7003613E2,1.3696332E3,-1.536021E2,-1.8253192E3,1.3871107E3,3.4594023E3,-2.667129E3,-5.987044E2,5.786129E3,1.0393539E4,-2.1399219E3,2.7110427E3,8.700477E2,-1.1774865E3,6.851759E3,1.7974971E3,-9.234698E2,-3.5331927E2,2.0740261E3,-4.8509644E1,-4.5700308E2,9.072305E1,2.3510763E1,4.6829788E2,-2.1964496E2,-2.851111E1,1.6400186E2,2.3028628E3,2.2883267E3,-2.5739374E2,-1.6147605E0,1.891268E2,1.02619194E2,2.782087E2,-3.855643E2,-7.375457E1,2.735985E1,3.8877097E2,4.22642E1,8.160639E2,-7.937288E2,3.9188913E2,3.0777115E2,1.6148722E3,4.3368726E3,1.7445558E3],"split_indices":[4,7,2,6,6,2,6,1,6,1,1,7,6,4,7,1,2,1,5,1,1,7,1,6,7,0,0,5,7,1,6,6,2,0,0,1,7,2,6,1,2,1,2,6,1,1,2,4,4,0,6,1,3,6,1,6,6,3,3,1,1,1,2,0,0,0,0,0,0,0,0,0,0,0,0,0,0,0,0,0,0,0,0,0,0,0,0,0,0,0,0,0,0,0,0,0,0,0,0,0,0,0,0,0,0,0,0,0,0,0,0,0,0,0,0,0,0,0,0,0,0],"split_type":[0,0,0,0,0,0,0,0,0,0,0,0,0,0,0,0,0,0,0,0,0,0,0,0,0,0,0,0,0,0,0,0,0,0,0,0,0,0,0,0,0,0,0,0,0,0,0,0,0,0,0,0,0,0,0,0,0,0,0,0,0,0,0,0,0,0,0,0,0,0,0,0,0,0,0,0,0,0,0,0,0,0,0,0,0,0,0,0,0,0,0,0,0,0,0,0,0,0,0,0,0,0,0,0,0,0,0,0,0,0,0,0,0,0,0,0,0,0,0,0,0],"sum_hessian":[7.7959E4,4.3731E4,3.4228E4,4.0349E4,3.382E3,6.839E3,2.7389E4,1.8E2,4.0169E4,3.194E3,1.88E2,5.22E2,6.317E3,2.6019E4,1.37E3,1.71E2,9E0,1.6908E4,2.3261E4,2.895E3,2.99E2,2.9E1,1.59E2,5.11E2,1.1E1,6.178E3,1.39E2,2.3943E4,2.076E3,1.234E3,1.36E2,3.1E1,1.4E2,4E0,5E0,1.5667E4,1.241E3,1.7651E4,5.61E3,2.747E3,1.48E2,2.9E2,9E0,2.5E1,4E0,8.7E1,7.2E1,4.95E2,1.6E1,7E0,4E0,1.494E3,4.684E3,1.16E2,2.3E1,1.0705E4,1.3238E4,1.76E3,3.16E2,6.03E2,6.31E2,1.28E2,8E0,2.4E1,7E0,4.7E1,9.3E1,3.747E3,1.192E4,3.74E2,8.67E2,1.5978E4,1.673E3,5.332E3,2.78E2,2.091E3,6.56E2,2.9E1,1.19E2,2.51E2,3.9E1,5E0,4E0,1.6E1,9E0,3E0,1E0,5.5E1,3.2E1,1E0,7.1E1,4E1,4.55E2,4E0,1.2E1,3E0,1E0,1.383E3,1.11E2,1.252E3,3.432E3,1.13E2,3E0,1.9E1,4E0,6.432E3,4.273E3,4.131E3,9.107E3,3.85E2,1.375E3,1.82E2,1.34E2,1.3E2,4.73E2,9.8E1,5.33E2,5E1,7.8E1,5E0,3E0],"tree_param":{"num_deleted":"0","num_feature":"9","num_nodes":"121","size_leaf_vector":"0"}},{"base_weights":[5.498977E2,4.943E2,1.8176293E3,1.7992567E2,6.59347E2,1.5658221E3,3.8714314E3,-3.244024E2,2.7136697E2,1.1975778E3,5.294789E2,1.0898108E3,2.1943354E3,1.4714496E4,3.5165461E3,-8.344006E3,-3.1415073E2,2.4871269E2,2.137093E3,1.0652855E2,1.661025E3,1.7743735E2,6.8437067E2,1.5325409E3,5.382111E2,1.159343E3,3.4357458E3,-1.1461016E3,1.6415166E4,2.0797974E3,5.730327E3,1.9413312E4,-3.240799E2,4.0825058E2,3.3213444E1,1.9366559E4,1.793574E3,-5.140475E2,7.0894305E2,3.987362E3,1.44588E3,7.7441486E2,-3.0434015E2,1.7002106E3,3.600866E2,8.056489E2,1.9066173E3,-8.500896E2,1.3249509E3,2.1505156E3,4.7628494E2,1.1578724E4,3.2847397E3,4.1710854E3,-1.3203152E2,8.651228E3,2.5931133E3,-1.2659977E3,-2.6240247E2,3.659936E2,3.8449675E3,-3.1412985E2,3.36803E2,1.0386836E3,2.3688857E4,-9.928201E3,2.0181404E3,-1.2407861E3,7.205784E2,2.7261953E3,5.677482E2,3.061958E3,1.0086165E4,4.7076584E2,1.8857843E3,9.953671E2,-6.818491E2,-1.8122424E3,1.2352295E2,1.2459338E3,3.5511475E3,1.2722007E2,8.046352E2,-7.7335583E2,1.2936975E3,8.8457324E2,2.2364648E3,-2.6099666E3,-3.6460397E2,2.7509836E3,8.1739246E2,5.45417E2,2.693179E3,-2.866614E2,1.9875632E3,4.341179E3,2.5975635E3,7.3047E3,3.660185E1,5.307292E2,-5.2574243E3,6.7364263E3,1.4224643E4,1.2077251E3,9.536205E3],"categories":[],"categories_nodes":[],"categories_segments":[],"categories_sizes":[],"default_left":[1,1,1,1,1,1,1,1,1,1,1,1,1,1,1,0,1,1,1,1,1,1,1,1,1,1,1,0,0,1,1,0,1,1,1,1,1,1,1,1,1,1,1,1,1,1,1,1,1,1,1,0,1,1,1,1,1,0,0,0,0,0,0,0,0,0,0,0,0,0,0,0,0,0,0,0,0,0,0,0,0,0,0,0,0,0,0,0,0,0,0,0,0,0,0,0,0,0,0,0,0,0,0,0,0],"id":10,"left_children":[1,3,5,7,9,11,13,15,17,19,21,23,25,27,29,-1,31,33,35,37,39,41,43,45,47,49,51,-1,-1,53,55,-1,57,59,61,63,65,67,69,71,73,75,77,79,81,83,85,87,89,91,93,-1,95,97,99,101,103,-1,-1,-1,-1,-1,-1,-1,-1,-1,-1,-1,-1,-1,-1,-1,-1,-1,-1,-1,-1,-1,-1,-1,-1,-1,-1,-1,-1,-1,-1,-1,-1,-1,-1,-1,-1,-1,-1,-1,-1,-1,-1,-1,-1,-1,-1,-1,-1],"loss_changes":[5.4939546E9,3.8750781E9,1.6876431E9,1.1858796E9,3.4226012E9,8.7091354E8,1.3220076E9,3.2187936E8,9.1948774E8,4.8130447E9,2.1513482E9,4.0529613E8,1.6110735E9,3.1552333E8,1.0917665E9,0E0,7.7863565E8,7.394035E8,1.5100328E9,1.0617076E9,3.338072E9,3.4679534E9,9.025513E9,2.4916787E8,8.1156205E8,4.640944E8,6.6409165E8,0E0,0E0,9.811717E8,1.2238008E9,0E0,2.2867856E8,1.7932878E9,9.649715E8,3.714876E8,6.96542E8,1.2561476E9,4.088859E8,3.1578941E9,2.6230415E9,1.7333824E9,4.3054817E9,5.5703286E9,2.1501217E9,2.4374926E8,2.0298982E8,2.2888059E8,3.408302E8,2.4241882E8,4.7100365E8,0E0,3.9671296E8,1.4119233E9,3.5606883E8,6.512159E8,6.329477E8,0E0,0E0,0E0,0E0,0E0,0E0,0E0,0E0,0E0,0E0,0E0,0E0,0E0,0E0,0E0,0E0,0E0,0E0,0E0,0E0,0E0,0E0,0E0,0E0,0E0,0E0,0E0,0E0,0E0,0E0,0E0,0E0,0E0,0E0,0E0,0E0,0E0,0E0,0E0,0E0,0E0,0E0,0E0,0E0,0E0,0E0,0E0,0E0],"parents":[2147483647,0,0,1,1,2,2,3,3,4,4,5,5,6,6,7,7,8,8,9,9,10,10,11,11,12,12,13,13,14,14,16,16,17,17,18,18,19,19,20,20,21,21,22,22,23,23,24,24,25,25,26,26,29,29,30,30,32,32,33,33,34,34,35,35,36,36,37,37,38,38,39,39,40,40,41,41,42,42,43,43,44,44,45,45,46,46,47,47,48,48,49,49,50,50,52,52,53,53,54,54,55,55,56,56],"right_children":[2,4,6,8,10,12,14,16,18,20,22,24,26,28,30,-1,32,34,36,38,40,42,44,46,48,50,52,-1,-1,54,56,-1,58,60,62,64,66,68,70,72,74,76,78,80,82,84,86,88,90,92,94,-1,96,98,100,102,104,-1,-1,-1,-1,-1,-1,-1,-1,-1,-1,-1,-1,-1,-1,-1,-1,-1,-1,-1,-1,-1,-1,-1,-1,-1,-1,-1,-1,-1,-1,-1,-1,-1,-1,-1,-1,-1,-1,-1,-1,-1,-1,-1,-1,-1,-1,-1,-1],"split_conditions":[2.0195E3,2.0165E3,7.04E0,2.0135E3,1.5E0,5E-1,1.4E1,4.019E3,6.615E0,7.5E0,3.5E0,8.4E1,4.785E0,8.5E0,1.235E2,-2.503202E3,5.6695E3,4.5E0,8.6495E3,5.5E0,1.15E1,1.05E0,4.5E0,1.65E1,1.2E2,4.12E0,1.45E0,-3.4383047E2,4.92455E3,7.45E1,5E-1,5.823994E3,2.0065E3,1.825E2,6.5E0,7E0,1.45255E4,1.5E0,1.608E3,9.5E0,1.55E1,2.5E0,1.3499999E0,7E1,7.5E0,1.61E2,1.1500001E0,8.65E1,1.335E2,1.595E2,4.635E0,3.4736172E3,7.6E1,8.125E0,1.048E1,7.96E0,9.1E0,-3.7979932E2,-7.872074E1,1.0979808E2,1.1534904E3,-9.423896E1,1.0104091E2,3.116051E2,7.1066577E3,-2.9784604E3,6.0544214E2,-3.7223584E2,2.1617354E2,8.1785864E2,1.7032448E2,9.1858746E2,3.0258496E3,1.4122975E2,5.657353E2,2.9861014E2,-2.0455475E2,-5.436727E2,3.7056885E1,3.7378015E2,1.0653442E3,3.8166023E1,2.4139056E2,-2.3200676E2,3.8810928E2,2.6537198E2,6.7093945E2,-7.8299E2,-1.09381195E2,8.252951E2,2.4521774E2,1.636251E2,8.0795374E2,-8.599843E1,5.96269E2,1.3023538E3,7.792691E2,2.1914102E3,1.0980555E1,1.5921877E2,-1.5772274E3,2.020928E3,4.267393E3,3.6231754E2,2.8608616E3],"split_indices":[2,2,6,2,0,5,1,4,6,1,0,1,6,1,1,0,4,0,4,1,1,7,0,1,1,6,7,0,0,1,0,0,2,1,0,6,4,3,4,1,1,0,7,1,0,4,7,1,1,4,6,0,1,6,6,6,6,0,0,0,0,0,0,0,0,0,0,0,0,0,0,0,0,0,0,0,0,0,0,0,0,0,0,0,0,0,0,0,0,0,0,0,0,0,0,0,0,0,0,0,0,0,0,0,0],"split_type":[0,0,0,0,0,0,0,0,0,0,0,0,0,0,0,0,0,0,0,0,0,0,0,0,0,0,0,0,0,0,0,0,0,0,0,0,0,0,0,0,0,0,0,0,0,0,0,0,0,0,0,0,0,0,0,0,0,0,0,0,0,0,0,0,0,0,0,0,0,0,0,0,0,0,0,0,0,0,0,0,0,0,0,0,0,0,0,0,0,0,0,0,0,0,0,0,0,0,0,0,0,0,0,0,0],"sum_hessian":[7.7959E4,7.4685E4,3.274E3,2.5712E4,4.8973E4,2.918E3,3.56E2,3.946E3,2.1766E4,9.518E3,3.9455E4,1.662E3,1.256E3,1E1,3.46E2,4E0,3.942E3,2.1506E4,2.6E2,2.838E3,6.68E3,1.2056E4,2.7399E4,9.21E2,7.41E2,6.86E2,5.7E2,1E0,9E0,2.11E2,1.35E2,1E0,3.941E3,1.2357E4,9.149E3,4E0,2.56E2,1.398E3,1.44E3,5.64E2,6.116E3,5.384E3,6.672E3,6.629E3,2.077E4,3.14E2,6.07E2,2.68E2,4.73E2,2.79E2,4.07E2,9E0,5.61E2,1.08E2,1.03E2,6.9E1,6.6E1,2.41E2,3.7E3,1.2208E4,1.49E2,4.267E3,4.882E3,1E0,3E0,4E0,2.52E2,8.8E2,5.18E2,9.3E1,1.347E3,4.91E2,7.3E1,1.902E3,4.214E3,4.675E3,7.09E2,1.474E3,5.198E3,5.324E3,1.305E3,1.3631E4,7.139E3,7.4E1,2.4E2,1.49E2,4.58E2,5.7E1,2.11E2,1.23E2,3.5E2,7.1E1,2.08E2,2.71E2,1.36E2,2.19E2,3.42E2,6.1E1,4.7E1,9.2E1,1.1E1,5.3E1,1.6E1,5.6E1,1E1],"tree_param":{"num_deleted":"0","num_feature":"9","num_nodes":"105","size_leaf_vector":"0"}},{"base_weights":[3.8543063E2,2.5329953E2,7.271122E2,2.5815298E3,2.33836E2,6.3638666E2,1.7535178E3,2.3124634E3,1.2568506E4,2.3756034E0,3.623662E2,-4.1852566E1,7.4325195E2,1.1806442E3,2.937064E3,2.0755247E3,1.1687487E4,1.6368306E4,6.0406562E3,-7.678499E1,9.0453876E2,-3.5547943E1,4.4590134E2,-1.7324615E2,1.0857814E3,6.952175E2,2.958155E3,1.1229518E3,1.2387731E4,9.369216E3,2.6030544E3,1.1522964E3,3.883525E3,7.2535596E3,1.5557488E4,-1.4635949E1,-1.3357733E3,9.637071E3,7.827594E2,4.054397E2,-1.8386218E2,2.9752243E2,6.7366864E2,-4.7600937E2,1.9886264E2,2.198435E3,-6.6816046E2,1.1989115E3,5.3300665E2,-6.794452E3,3.452679E3,1.8550942E3,7.84767E2,1.5029584E3,1.7454379E4,4.746293E3,1.5137588E4,3.3309097E3,1.191571E3,2.2153899E2,2.7015627E3,8.1771016E3,3.4849175E3,9.511613E3,1.0722838E3,-4.268036E2,1.5959776E2,-1.6128368E3,-3.748755E2,1.5735016E3,1.191615E4,-3.7174216E2,1.2267354E3,3.217912E2,1.4107224E3,-9.1029095E2,-7.4942154E1,3.6274576E2,-1.223521E3,8.993211E2,1.5261871E2,1.0056203E4,-4.9919913E2,8.840074E1,2.9635654E3,-6.5226013E2,2.870245E3,-1.2106923E3,-7.3067825E1,1.0599664E3,2.79948E3,-4.0362527E2,7.5802295E2,-1.0947532E4,-2.3466016E2,1.2033018E4,2.7534768E3,1.1833123E3,3.049455E3,2.1496296E3,4.042875E2,2.3045312E3,-5.009375E1,1.1779067E4,3.0233188E3,2.8241433E3,9.256949E3,-4.8651265E3,1.669298E3],"categories":[],"categories_nodes":[],"categories_segments":[],"categories_sizes":[],"default_left":[1,1,1,1,1,1,1,1,1,1,1,1,1,1,1,1,1,0,0,1,1,1,1,1,1,1,1,1,1,1,1,1,1,1,0,1,1,1,1,1,1,1,1,1,1,1,1,1,1,1,1,1,1,1,0,1,0,1,1,0,0,0,0,0,0,0,0,0,0,0,0,0,0,0,0,0,0,0,0,0,0,0,0,0,0,0,0,0,0,0,0,0,0,0,0,0,0,0,0,0,0,0,0,0,0,0,0,0,0],"id":11,"left_children":[1,3,5,7,9,11,13,15,17,19,21,23,25,27,29,31,33,-1,-1,35,37,39,41,43,45,47,49,51,53,55,57,59,61,63,-1,65,67,69,71,73,75,77,79,81,83,85,87,89,91,93,95,97,99,101,-1,103,-1,105,107,-1,-1,-1,-1,-1,-1,-1,-1,-1,-1,-1,-1,-1,-1,-1,-1,-1,-1,-1,-1,-1,-1,-1,-1,-1,-1,-1,-1,-1,-1,-1,-1,-1,-1,-1,-1,-1,-1,-1,-1,-1,-1,-1,-1,-1,-1,-1,-1,-1,-1],"loss_changes":[3.5194573E9,2.547084E9,2.02334E9,1.2231526E9,1.6587208E9,1.4478956E9,1.1932421E9,9.864366E8,1.98779E8,1.4218145E9,1.1916293E9,4.0319382E8,1.833944E9,7.561464E8,1.210942E9,7.383178E8,7.590515E7,0E0,0E0,1.4320972E9,1.7003444E9,4.0695747E8,1.00113766E9,2.7464918E8,5.557034E8,1.3795164E9,1.7886385E9,2.9219712E8,3.046626E8,6.748211E8,5.590218E8,4.2623085E8,2.2822118E8,8.750442E7,0E0,1.252711E9,2.28619E8,3.855552E8,8.128809E8,1.312316E8,3.683268E8,1.7805243E9,1.3739756E9,3.332776E8,3.338394E8,3.3510394E8,3.5748628E7,9.119498E8,2.6935757E9,4.878112E8,2.0606559E9,2.9647053E8,4.2132355E8,3.8500965E6,0E0,1.7038211E8,0E0,1.0579827E9,5.520893E8,0E0,0E0,0E0,0E0,0E0,0E0,0E0,0E0,0E0,0E0,0E0,0E0,0E0,0E0,0E0,0E0,0E0,0E0,0E0,0E0,0E0,0E0,0E0,0E0,0E0,0E0,0E0,0E0,0E0,0E0,0E0,0E0,0E0,0E0,0E0,0E0,0E0,0E0,0E0,0E0,0E0,0E0,0E0,0E0,0E0,0E0,0E0,0E0,0E0,0E0],"parents":[2147483647,0,0,1,1,2,2,3,3,4,4,5,5,6,6,7,7,8,8,9,9,10,10,11,11,12,12,13,13,14,14,15,15,16,16,19,19,20,20,21,21,22,22,23,23,24,24,25,25,26,26,27,27,28,28,29,29,30,30,31,31,32,32,33,33,35,35,36,36,37,37,38,38,39,39,40,40,41,41,42,42,43,43,44,44,45,45,46,46,47,47,48,48,49,49,50,50,51,51,52,52,53,53,55,55,57,57,58,58],"right_children":[2,4,6,8,10,12,14,16,18,20,22,24,26,28,30,32,34,-1,-1,36,38,40,42,44,46,48,50,52,54,56,58,60,62,64,-1,66,68,70,72,74,76,78,80,82,84,86,88,90,92,94,96,98,100,102,-1,104,-1,106,108,-1,-1,-1,-1,-1,-1,-1,-1,-1,-1,-1,-1,-1,-1,-1,-1,-1,-1,-1,-1,-1,-1,-1,-1,-1,-1,-1,-1,-1,-1,-1,-1,-1,-1,-1,-1,-1,-1,-1,-1,-1,-1,-1,-1,-1,-1,-1,-1,-1,-1],"split_conditions":[4.96E0,2.58E0,2.0195E3,1.935E2,3.78E0,2.0155E3,5E-1,2.75E0,2.0185E3,1.5E0,2.0155E3,7.5E0,3.75E0,1.0815001E1,1.25E1,2.0175E3,1.63E2,4.9104917E3,1.8121969E3,1.67E2,1.5E0,1.5E0,5E-1,1.5E0,9.85E1,1.5E0,1.75E1,5.55E1,1.3535E3,8.5E0,4.5E0,4.5E0,5E-1,2.018E3,4.6672466E3,1.5E0,1.45E0,9.55E1,1.55E0,1.8E2,5E-1,1.7E0,4.5E0,4.8325E3,2.95E0,2.0105E3,1.5E0,7.285E0,3.5E0,3.1515E4,2.95E1,1.65E1,5E-1,3.235E2,5.236314E3,5.075E0,4.5412764E3,7.285E0,4.85E1,6.64617E1,8.104689E2,2.4531306E3,1.0454753E3,2.8534841E3,3.2168515E2,-1.2804108E2,4.787933E1,-4.8385104E2,-1.12462654E2,4.720505E2,3.5748452E3,-1.1152265E2,3.6802063E2,9.653736E1,4.2321674E2,-2.730873E2,-2.2482647E1,1.0882373E2,-3.670563E2,2.6979636E2,4.5785614E1,3.016861E3,-1.4975975E2,2.6520224E1,8.8906964E2,-1.9567805E2,8.6107355E2,-3.632077E2,-2.192035E1,3.1798993E2,8.3984406E2,-1.21087585E2,2.2740689E2,-3.2842598E3,-7.039805E1,3.6099055E3,8.260431E2,3.5499368E2,9.1483655E2,6.448889E2,1.21286255E2,6.913594E2,-1.5028126E1,3.5337205E3,9.0699567E2,8.4724304E2,2.777085E3,-1.459538E3,5.007894E2],"split_indices":[6,6,2,1,6,2,5,7,2,5,2,0,7,6,1,2,1,0,0,1,0,0,5,3,1,0,1,1,4,1,0,0,0,2,0,3,7,1,7,1,3,7,0,4,7,2,3,6,0,4,1,1,0,4,0,6,0,6,1,0,0,0,0,0,0,0,0,0,0,0,0,0,0,0,0,0,0,0,0,0,0,0,0,0,0,0,0,0,0,0,0,0,0,0,0,0,0,0,0,0,0,0,0,0,0,0,0,0,0],"split_type":[0,0,0,0,0,0,0,0,0,0,0,0,0,0,0,0,0,0,0,0,0,0,0,0,0,0,0,0,0,0,0,0,0,0,0,0,0,0,0,0,0,0,0,0,0,0,0,0,0,0,0,0,0,0,0,0,0,0,0,0,0,0,0,0,0,0,0,0,0,0,0,0,0,0,0,0,0,0,0,0,0,0,0,0,0,0,0,0,0,0,0,0,0,0,0,0,0,0,0,0,0,0,0,0,0,0,0,0,0],"sum_hessian":[7.7959E4,5.622E4,2.1739E4,4.65E2,5.5755E4,1.9975E4,1.764E3,4.54E2,1.1E1,1.9907E4,3.5848E4,2.719E3,1.7256E4,1.19E3,5.74E2,4.44E2,1E1,6E0,5E0,1.8302E4,1.605E3,6.22E3,2.9628E4,2.436E3,2.83E2,1.6891E4,3.65E2,1.185E3,5E0,2.7E1,5.47E2,2.95E2,1.49E2,6E0,4E0,1.7442E4,8.6E2,2.1E1,1.584E3,1.565E3,4.655E3,1.7942E4,1.1686E4,1.343E3,1.093E3,1.73E2,1.1E2,4.113E3,1.2778E4,1.7E1,3.48E2,3.73E2,8.12E2,2E0,3E0,1.6E1,1.1E1,3.6E2,1.87E2,1.85E2,1.1E2,1.1E1,1.38E2,4E0,2E0,5.182E3,1.226E4,6.67E2,1.93E2,5E0,1.6E1,4.4E2,1.144E3,1.446E3,1.19E2,6.06E2,4.049E3,1.7205E4,7.37E2,8.154E3,3.532E3,2E0,1.341E3,1.052E3,4.1E1,3.3E1,1.4E2,5.7E1,5.3E1,3.786E3,3.27E2,2.475E3,1.0303E4,1E1,7E0,2.5E1,3.23E2,2.4E2,1.33E2,1.76E2,6.36E2,1E0,1E0,2E0,1.4E1,3.33E2,2.7E1,1.3E1,1.74E2],"tree_param":{"num_deleted":"0","num_feature":"9","num_nodes":"109","size_leaf_vector":"0"}},{"base_weights":[2.7042816E2,9.480611E2,2.2515558E2,8.7781476E2,4.7649136E3,3.5160577E2,5.1225277E1,1.1722273E3,4.6009006E2,1.5280789E3,1.2021166E4,1.9606192E2,8.8857477E2,-3.20953E2,2.3266039E2,6.0408413E3,1.1086903E3,5.135751E2,-1.9661423E3,2.2990117E3,-1.0225201E4,1.9753027E4,8.327363E3,7.8021904E1,9.103992E2,2.5910133E1,1.1577073E3,-1.6722356E3,-1.3075882E2,-2.8872876E2,4.0167972E2,3.802604E3,2.9393918E4,7.728922E2,2.0580483E3,7.9488075E1,8.499794E2,-3.8030522E3,1.3933723E2,9.287922E3,1.3325707E3,9.269344E3,3.413605E4,1.4593816E4,6.0152893E2,2.4331538E2,-4.323861E2,2.2626194E3,4.9161676E2,6.1362494E2,-1.2535616E3,1.8903201E3,6.0858734E2,-1.3139359E3,-3.5249355E3,-6.3395573E1,-1.4810806E3,-9.495972E2,7.225489E1,1.1828157E3,1.2503771E2,7.8864146E3,-1.2845835E3,6.2508344E2,3.0870864E3,2.2269417E3,-7.3634077E3,3.5900497E2,-3.7681192E2,-9.819576E1,1.1937118E3,1.4888646E3,-4.377943E3,-1.280383E3,2.1745625E3,-1.2817031E3,1.1263144E4,2.6900657E3,-3.5297097E3,-1.4760938E3,1.171365E4,5.6184077E3,2.1136922E4,6.6656694E3,-1.7477148E3,-2.0033769E2,4.594951E2,-1.3167621E3,1.6159375E2,1.7542167E3,5.052966E3,2.2244537E2,1.980557E3,1.1961401E3,-3.3882544E2,-2.211845E3,3.0944312E3,1.6353236E3,3.7636755E3,5.7388477E2,9.521635E3,-2.2042258E3,-6.034235E2,-5.391398E3,-2.4183484E3,-3.4673093E2,2.4291911E2,-1.9248973E3,-2.872633E2,-3.2646907E3,-6.7408636E2,7.1569605E0,3.339245E3,8.5550073E2,4.1305645E3,5.0854376E2,-1.6297458E2],"categories":[],"categories_nodes":[],"categories_segments":[],"categories_sizes":[],"default_left":[1,1,1,1,1,1,1,1,1,1,1,1,1,1,1,1,1,1,1,1,0,1,1,1,1,1,1,1,1,1,1,1,0,1,1,1,1,1,1,1,1,1,0,1,1,1,1,1,1,1,1,1,1,1,1,1,1,1,1,1,1,0,0,0,0,0,0,0,0,0,0,0,0,0,0,0,0,0,0,0,0,0,0,0,0,0,0,0,0,0,0,0,0,0,0,0,0,0,0,0,0,0,0,0,0,0,0,0,0,0,0,0,0,0,0,0,0],"id":12,"left_children":[1,3,5,7,9,11,13,15,17,19,21,23,25,27,29,31,33,35,37,39,-1,41,43,45,47,49,51,53,55,57,59,61,-1,63,65,67,69,71,73,75,77,79,-1,81,83,85,87,89,91,93,95,97,99,101,103,105,107,109,111,113,115,-1,-1,-1,-1,-1,-1,-1,-1,-1,-1,-1,-1,-1,-1,-1,-1,-1,-1,-1,-1,-1,-1,-1,-1,-1,-1,-1,-1,-1,-1,-1,-1,-1,-1,-1,-1,-1,-1,-1,-1,-1,-1,-1,-1,-1,-1,-1,-1,-1,-1,-1,-1,-1,-1,-1,-1],"loss_changes":[2.3914583E9,1.3047777E9,1.6072463E9,5.891658E8,2.0485123E9,3.5340687E9,2.0775185E9,8.631593E8,2.5846765E8,5.852892E8,6.0662835E8,2.7666493E9,2.206524E9,2.5911736E9,1.822802E9,1.7699368E9,8.836969E8,2.8352026E8,1.668357E8,3.8613098E8,0E0,8.8987776E8,9.59493E8,2.3758833E9,2.6338166E9,1.7009609E9,2.9130547E9,8.21163E8,8.0401075E8,1.2081501E9,3.3752563E9,7.1648435E8,0E0,7.003158E8,1.1700321E9,1.0841977E8,3.566722E8,7.64904E7,6.3462736E7,1.6057747E8,3.5932278E8,1.7488131E8,0E0,5.2724147E8,1.5411114E8,2.040264E9,3.6190147E9,1.551617E9,1.4239322E9,8.603714E8,2.9734702E9,1.4761452E9,1.2756783E9,6.590647E8,4.021079E8,7.309409E8,2.2197818E8,1.1388831E9,6.9669715E8,3.9378473E9,1.2742856E9,0E0,0E0,0E0,0E0,0E0,0E0,0E0,0E0,0E0,0E0,0E0,0E0,0E0,0E0,0E0,0E0,0E0,0E0,0E0,0E0,0E0,0E0,0E0,0E0,0E0,0E0,0E0,0E0,0E0,0E0,0E0,0E0,0E0,0E0,0E0,0E0,0E0,0E0,0E0,0E0,0E0,0E0,0E0,0E0,0E0,0E0,0E0,0E0,0E0,0E0,0E0,0E0,0E0,0E0,0E0,0E0],"parents":[2147483647,0,0,1,1,2,2,3,3,4,4,5,5,6,6,7,7,8,8,9,9,10,10,11,11,12,12,13,13,14,14,15,15,16,16,17,17,18,18,19,19,21,21,22,22,23,23,24,24,25,25,26,26,27,27,28,28,29,29,30,30,31,31,33,33,34,34,35,35,36,36,37,37,38,38,39,39,40,40,41,41,43,43,44,44,45,45,46,46,47,47,48,48,49,49,50,50,51,51,52,52,53,53,54,54,55,55,56,56,57,57,58,58,59,59,60,60],"right_children":[2,4,6,8,10,12,14,16,18,20,22,24,26,28,30,32,34,36,38,40,-1,42,44,46,48,50,52,54,56,58,60,62,-1,64,66,68,70,72,74,76,78,80,-1,82,84,86,88,90,92,94,96,98,100,102,104,106,108,110,112,114,116,-1,-1,-1,-1,-1,-1,-1,-1,-1,-1,-1,-1,-1,-1,-1,-1,-1,-1,-1,-1,-1,-1,-1,-1,-1,-1,-1,-1,-1,-1,-1,-1,-1,-1,-1,-1,-1,-1,-1,-1,-1,-1,-1,-1,-1,-1,-1,-1,-1,-1,-1,-1,-1,-1,-1,-1],"split_conditions":[2.4515E3,3.5E0,4.5E0,4.5E0,1.5785E3,3.5E0,5.5E0,2.0175E3,2.45E0,1.4355E3,7.505E0,1.235E2,3.65E1,1.5E0,1.1E0,7E0,3.5E0,4.785E0,4.235E2,2.95E1,-3.0675605E3,7.045E0,6.95E1,8.35E1,1.36E2,1.9E0,2.05E0,5.865E0,1.95E0,5.8E1,1.45E0,1.5E0,8.818176E3,1.805E2,1.745E2,1.145E2,5.5E0,5E-1,5E-1,2.5E0,1.057E1,9.1E1,1.0240815E4,9.065E0,5E-1,3.705E0,9.95E1,1.255E2,1.825E2,2.0185E3,5.245E0,5.71E0,1.0940001E1,7.95E1,1.77425E4,5.65E1,2.0175E3,1.5E0,5.29E0,4.95E0,1.1E2,2.3659246E3,-3.8537506E2,1.8752504E2,9.26126E2,6.680825E2,-2.2090225E3,1.077015E2,-1.1304358E2,-2.945873E1,3.5811356E2,4.466594E2,-1.3133829E3,-3.8411493E2,6.523688E2,-3.8451096E2,3.378943E3,8.070197E2,-1.058913E3,-4.4282816E2,3.5140952E3,1.6855223E3,6.3410767E3,1.9997009E3,-5.2431445E2,-6.010131E1,1.3784853E2,-3.9502866E2,4.8478127E1,5.26265E2,1.5158898E3,6.673361E1,5.941671E2,3.5884204E2,-1.0164764E2,-6.635535E2,9.283294E2,4.905971E2,1.1291027E3,1.7216544E2,2.8564905E3,-6.6126776E2,-1.8102707E2,-1.6174194E3,-7.255045E2,-1.0401928E2,7.287574E1,-5.7746924E2,-8.617899E1,-9.794072E2,-2.0222592E2,2.1470883E0,1.00177356E3,2.5665024E2,1.2391694E3,1.5256314E2,-4.8892376E1],"split_indices":[4,7,0,0,4,0,0,2,7,4,6,1,1,3,7,6,0,6,4,1,0,6,1,1,1,7,7,6,7,1,7,0,0,1,1,1,0,5,3,0,6,1,0,6,0,6,1,1,1,2,6,6,6,1,4,1,2,3,6,6,1,0,0,0,0,0,0,0,0,0,0,0,0,0,0,0,0,0,0,0,0,0,0,0,0,0,0,0,0,0,0,0,0,0,0,0,0,0,0,0,0,0,0,0,0,0,0,0,0,0,0,0,0,0,0,0,0],"split_type":[0,0,0,0,0,0,0,0,0,0,0,0,0,0,0,0,0,0,0,0,0,0,0,0,0,0,0,0,0,0,0,0,0,0,0,0,0,0,0,0,0,0,0,0,0,0,0,0,0,0,0,0,0,0,0,0,0,0,0,0,0,0,0,0,0,0,0,0,0,0,0,0,0,0,0,0,0,0,0,0,0,0,0,0,0,0,0,0,0,0,0,0,0,0,0,0,0,0,0,0,0,0,0,0,0,0,0,0,0,0,0,0,0,0,0,0,0],"sum_hessian":[7.7959E4,4.881E3,7.3078E4,4.794E3,8.7E1,4.2314E4,3.0764E4,2.811E3,1.983E3,6.1E1,2.6E1,3.2811E4,9.503E3,1.0082E4,2.0682E4,3.5E1,2.776E3,1.941E3,4.2E1,5.8E1,3E0,7E0,1.9E1,2.8159E4,4.652E3,2.26E3,7.243E3,1.243E3,8.839E3,5.063E3,1.5619E4,3.3E1,2E0,2.052E3,7.24E2,8.48E2,1.093E3,2.2E1,2E1,6E0,5.2E1,5E0,2E0,1E1,9E0,2.1271E4,6.888E3,1.099E3,3.553E3,1.549E3,7.11E2,3.102E3,4.141E3,1.043E3,2E2,8.42E3,4.19E2,1.788E3,3.275E3,4.084E3,1.1535E4,1.8E1,1.5E1,1.93E3,1.22E2,7.12E2,1.2E1,5.26E2,3.22E2,2.91E2,8.02E2,2E0,2E1,1.2E1,8E0,1E0,5E0,4.1E1,1.1E1,1E0,4E0,5E0,5E0,2E0,7E0,6.969E3,1.4302E4,2.767E3,4.121E3,9.31E2,1.68E2,3.01E3,5.43E2,9.61E2,5.88E2,5.83E2,1.28E2,2.732E3,3.7E2,4.126E3,1.5E1,4.62E2,5.81E2,7.3E1,1.27E2,4.374E3,4.046E3,3.05E2,1.14E2,1.89E2,1.599E3,3.212E3,6.3E1,3.677E3,4.07E2,4.947E3,6.588E3],"tree_param":{"num_deleted":"0","num_feature":"9","num_nodes":"117","size_leaf_vector":"0"}},{"base_weights":[1.8978377E2,2.5979657E2,-8.8875305E1,2.278813E3,2.4864893E2,-3.313356E1,-7.074796E2,2.066274E3,9.128484E3,2.4474336E2,4.9852017E3,-2.359696E2,6.3543835E1,-1.3205029E3,-4.113809E2,1.8522397E3,8.163253E3,1.037545E4,4.664173E3,2.5054492E2,-2.7201458E3,1.939952E4,4.308925E3,-9.569273E2,-1.2773166E2,2.0917511E2,-1.5141653E2,-1.2680411E3,-4.242096E3,-4.912182E2,8.1005994E2,5.1717812E3,1.6623881E3,1.1041261E4,3.9247031E3,8.461727E3,5.777461E2,2.3989455E2,2.9926143E3,-4.3689414E3,1.2620495E4,3.0820054E3,1.140543E4,-9.838471E2,7.6513086E3,-8.419146E2,-7.68608E1,-8.8183556E1,6.409797E2,-2.2165736E2,1.9029414E3,-1.6292561E3,-7.5334015E2,-5.0900234E3,-1.4148516E3,-1.034765E3,-3.3037653E2,1.1255896E3,-1.1449346E3,6.3235244E3,3.7332087E3,1.0357996E2,1.9580393E3,5.6353257E3,1.6605605E3,4.8305365E2,1.7942421E2,2.1842385E3,1.1735115E4,-2.213015E3,-1.00443125E4,1.3564641E4,2.5227664E3,1.8693763E3,1.4845976E4,-1.6640077E3,-7.8638855E2,-7.539094E2,-1.8411229E3,-1.6056468E2,3.738517E2,-1.31198E1,-1.355989E3,4.838853E2,2.2677524E3,2.8834695E2,-3.9009363E2,1.4329384E3,6.4052275E3,-1.8368687E3,1.7415958E2,-3.4389755E2,-1.7260479E3,-1.1869451E3,-6.9286786E2,1.4977394E2,-5.062375E2,9.0540405E2,3.2662336E3,-1.6312369E3,2.0931511E2],"categories":[],"categories_nodes":[],"categories_segments":[],"categories_sizes":[],"default_left":[1,1,1,1,1,1,1,1,1,1,1,1,1,1,1,1,1,0,1,1,1,0,1,1,1,1,1,1,1,1,1,1,1,0,1,0,0,1,1,1,0,1,1,1,0,1,1,1,1,1,1,1,1,0,0,1,1,1,1,0,0,0,0,0,0,0,0,0,0,0,0,0,0,0,0,0,0,0,0,0,0,0,0,0,0,0,0,0,0,0,0,0,0,0,0,0,0,0,0,0,0],"id":13,"left_children":[1,3,5,7,9,11,13,15,17,19,21,23,25,27,29,31,33,-1,35,37,39,-1,41,43,45,47,49,51,53,55,57,59,61,-1,63,-1,-1,65,67,69,-1,71,73,75,-1,77,79,81,83,85,87,89,91,-1,-1,93,95,97,99,-1,-1,-1,-1,-1,-1,-1,-1,-1,-1,-1,-1,-1,-1,-1,-1,-1,-1,-1,-1,-1,-1,-1,-1,-1,-1,-1,-1,-1,-1,-1,-1,-1,-1,-1,-1,-1,-1,-1,-1,-1,-1],"loss_changes":[1.5209994E9,1.4017713E9,5.397936E8,4.7902963E8,1.1450642E9,2.8164893E8,2.3433773E8,4.1943194E8,7.275584E6,1.0656786E9,4.1356045E8,3.61648E8,3.0453494E8,5.9148416E7,8.562736E7,1.9496371E8,9.085069E7,0E0,5.7184976E7,1.8039475E9,3.115662E9,0E0,4.001904E8,1.4772544E8,1.4642226E8,7.4465306E8,5.673757E8,7.592851E7,9.579464E6,7.143402E7,3.4599104E7,4.559712E6,1.412823E8,0E0,1.388076E7,0E0,0E0,9.050419E8,1.6634345E9,1.3236969E9,0E0,2.237207E8,2.0191187E8,7.981075E7,0E0,2.2178688E7,1.4209987E8,3.2687827E8,6.0329446E8,3.2654477E8,2.6591325E8,9.130195E7,6.8306776E7,0E0,0E0,8.907216E6,5.369505E7,1.9195672E7,5.610041E6,0E0,0E0,0E0,0E0,0E0,0E0,0E0,0E0,0E0,0E0,0E0,0E0,0E0,0E0,0E0,0E0,0E0,0E0,0E0,0E0,0E0,0E0,0E0,0E0,0E0,0E0,0E0,0E0,0E0,0E0,0E0,0E0,0E0,0E0,0E0,0E0,0E0,0E0,0E0,0E0,0E0,0E0],"parents":[2147483647,0,0,1,1,2,2,3,3,4,4,5,5,6,6,7,7,8,8,9,9,10,10,11,11,12,12,13,13,14,14,15,15,16,16,18,18,19,19,20,20,22,22,23,23,24,24,25,25,26,26,27,27,28,28,29,29,30,30,31,31,32,32,34,34,37,37,38,38,39,39,41,41,42,42,43,43,45,45,46,46,47,47,48,48,49,49,50,50,51,51,52,52,55,55,56,56,57,57,58,58],"right_children":[2,4,6,8,10,12,14,16,18,20,22,24,26,28,30,32,34,-1,36,38,40,-1,42,44,46,48,50,52,54,56,58,60,62,-1,64,-1,-1,66,68,70,-1,72,74,76,-1,78,80,82,84,86,88,90,92,-1,-1,94,96,98,100,-1,-1,-1,-1,-1,-1,-1,-1,-1,-1,-1,-1,-1,-1,-1,-1,-1,-1,-1,-1,-1,-1,-1,-1,-1,-1,-1,-1,-1,-1,-1,-1,-1,-1,-1,-1,-1,-1,-1,-1,-1,-1],"split_conditions":[5.89675E4,2.58E0,1.384045E5,2.75E0,5.1E0,1.55E0,1.5E0,1.935E2,2.5E0,4.05E0,7.5699997E0,1.5E0,7.95E1,2.651385E5,2.05E0,5E-1,2.0185E3,3.1126353E3,2.018E3,3.75E0,1.5E0,5.819856E3,3.9824E4,1.935E2,3.165E0,3.85E1,1.5E0,2.05E0,5.5E0,3.455E0,1.34E2,5E-1,1.21E0,3.3123784E3,2.725E3,2.538518E3,1.7332384E2,1.5E0,1.425E2,4.85E0,3.7861487E3,2.0125E3,1.185E2,1.3499999E0,2.2953926E3,1.165E2,1.45E0,3.2E1,5.865E0,1.75E0,1.355E2,6.115E0,6.25E0,-1.5270071E3,-4.2445547E2,5.5E0,1.5E0,8.3949995E0,2.008E3,1.8970574E3,1.1199626E3,3.107399E1,5.874118E2,1.6905978E3,4.9816818E2,1.449161E2,5.3827267E1,6.552716E2,3.5205347E3,-6.639045E2,-3.013294E3,4.0693923E3,7.5682996E2,5.608129E2,4.453793E3,-4.9920233E2,-2.3591658E2,-2.2617284E2,-5.523369E2,-4.8169407E1,1.1215552E2,-3.93594E0,-4.0679672E2,1.451656E2,6.8032574E2,8.650409E1,-1.1702809E2,4.2988153E2,1.9215684E3,-5.510606E2,5.2247875E1,-1.0316927E2,-5.178144E2,-3.5608353E2,-2.0786037E2,4.4932182E1,-1.5187125E2,2.7162122E2,9.798701E2,-4.893711E2,6.2794537E1],"split_indices":[4,6,4,7,7,7,3,1,0,7,6,3,1,4,7,0,2,0,2,7,3,0,4,1,6,1,5,7,0,6,1,3,6,0,4,0,0,0,1,7,0,2,1,7,0,1,7,1,6,7,1,6,6,0,0,0,0,6,2,0,0,0,0,0,0,0,0,0,0,0,0,0,0,0,0,0,0,0,0,0,0,0,0,0,0,0,0,0,0,0,0,0,0,0,0,0,0,0,0,0,0],"split_type":[0,0,0,0,0,0,0,0,0,0,0,0,0,0,0,0,0,0,0,0,0,0,0,0,0,0,0,0,0,0,0,0,0,0,0,0,0,0,0,0,0,0,0,0,0,0,0,0,0,0,0,0,0,0,0,0,0,0,0,0,0,0,0,0,0,0,0,0,0,0,0,0,0,0,0,0,0,0,0,0,0,0,0,0,0,0,0,0,0,0,0,0,0,0,0,0,0,0,0,0,0],"sum_hessian":[7.7959E4,6.2305E4,1.5654E4,3.41E2,6.1964E4,1.4361E4,1.293E3,3.32E2,9E0,6.1914E4,5E1,4.635E3,9.726E3,4.2E2,8.73E2,3.22E2,1E1,6E0,3E0,6.1794E4,1.2E2,1E0,4.9E1,6.04E2,4.031E3,5.798E3,3.928E3,4.14E2,6E0,8.2E2,5.3E1,1.6E1,3.06E2,5E0,5E0,1E0,2E0,6.1556E4,2.38E2,1.09E2,1.1E1,4.3E1,6E0,6.03E2,1E0,2.67E2,3.764E3,3.434E3,2.364E3,3.799E3,1.29E2,2.42E2,1.72E2,4E0,2E0,1.86E2,6.34E2,4.6E1,7E0,7E0,9E0,4.9E1,2.57E2,2E0,3E0,1.2258E4,4.9298E4,2.19E2,1.9E1,8E1,2.9E1,1E0,4.2E1,2E0,4E0,1.34E2,4.69E2,2.47E2,2E1,3.175E3,5.89E2,3.243E3,1.91E2,2.157E3,2.07E2,9.43E2,2.856E3,1.18E2,1.1E1,2.17E2,2.5E1,1.22E2,5E1,1.27E2,5.9E1,1.7E2,4.64E2,4.3E1,3E0,5E0,2E0],"tree_param":{"num_deleted":"0","num_feature":"9","num_nodes":"101","size_leaf_vector":"0"}},{"base_weights":[1.3330713E2,5.308184E2,9.967608E1,4.967219E2,2.5446863E3,7.963356E1,7.051554E2,5.329495E2,-2.182182E3,9.2078955E3,1.5428165E3,-2.024951E2,1.4098358E2,-3.573495E2,1.044315E3,4.6535236E2,1.6339542E3,1.017475E4,-2.467393E3,-5.009471E3,1.2248277E4,2.25E0,5.275641E3,-1.6206158E2,-1.8824237E3,1.3838867E2,6.5802744E3,1.9159044E3,-5.5087537E2,1.4640984E3,-9.184634E1,-5.2562714E2,5.1679974E2,1.5119607E4,1.4695265E3,-3.529446E3,8.4213574E2,-6.756711E3,-7.574961E2,1.0393984E3,1.3265226E4,-3.8445386E3,3.1009893E3,1.1461867E4,1.889437E3,-1.4660962E3,-1.11493355E2,-1.6270305E3,-4.432713E3,9.229196E0,2.499555E2,-2.6125051E3,9.278963E3,-6.236765E2,2.6811833E3,-8.02763E1,-1.1667258E3,1.3527003E3,7.469217E3,-2.401557E2,6.784062E3,3.78704E3,-6.690293E2,1.5400311E3,4.2911417E2,2.3418523E4,-4.888571E3,3.7644817E3,5.699763E2,4.978E3,-3.758013E3,2.8979521E3,-1.5034758E3,1.9498125E3,-4.849627E3,5.930823E3,-8.069795E2,4.367238E3,2.419538E4,-3.129705E3,3.1019126E3,-6.680084E2,-1.8063862E3,-5.0484238E2,2.620986E1,-5.9129095E2,-2.2739202E3,-4.878212E3,-7.629169E2,2.1476433E2,-2.9065674E2,8.0563605E2,4.1286682E1,-4.4629663E2,-4.6299478E3,-4.0368674E3,1.1195746E4,-1.760668E3,2.2778809E1,6.836788E3,2.0584866E3,-3.835947E2,1.2102604E3,4.042376E2,-1.8155667E3,1.8416398E3,2.2457976E2,8.319934E3,3.672196E3,-3.3853E1,-2.9273167E3,8.956128E3,1.2869316E3],"categories":[],"categories_nodes":[],"categories_segments":[],"categories_sizes":[],"default_left":[1,1,1,1,1,1,1,1,1,1,1,1,1,1,1,1,1,0,1,1,1,1,1,1,1,1,1,1,1,1,1,1,1,1,1,1,1,0,0,0,0,1,1,1,1,1,1,1,1,1,1,1,1,1,1,1,1,1,1,1,1,0,0,0,0,0,0,0,0,0,0,0,0,0,0,0,0,0,0,0,0,0,0,0,0,0,0,0,0,0,0,0,0,0,0,0,0,0,0,0,0,0,0,0,0,0,0,0,0,0,0,0,0],"id":14,"left_children":[1,3,5,7,9,11,13,15,17,19,21,23,25,27,29,31,33,-1,35,37,39,41,43,45,47,49,51,53,55,57,59,61,63,65,67,69,71,-1,-1,-1,-1,73,75,77,79,81,83,85,87,89,91,93,95,97,99,101,103,105,107,109,111,-1,-1,-1,-1,-1,-1,-1,-1,-1,-1,-1,-1,-1,-1,-1,-1,-1,-1,-1,-1,-1,-1,-1,-1,-1,-1,-1,-1,-1,-1,-1,-1,-1,-1,-1,-1,-1,-1,-1,-1,-1,-1,-1,-1,-1,-1,-1,-1,-1,-1,-1,-1],"loss_changes":[1.0421724E9,4.1629376E8,8.7223174E8,5.8162125E8,6.600363E8,1.2043263E9,8.302792E8,4.3849498E8,3.070519E8,6.232982E8,5.1179725E8,8.438721E8,9.540475E8,2.4653827E8,8.328744E8,2.8384102E8,7.339198E8,0E0,2.8064902E8,1.716948E7,1.1159949E8,7.748144E8,5.2298688E8,8.0018336E8,1.8297504E8,8.232216E8,5.9483565E8,8.718566E7,1.4916294E8,8.428188E8,4.8295677E8,1.7260624E8,4.7379264E8,7.786679E8,6.956308E8,1.3537856E8,1.0079992E8,0E0,0E0,0E0,0E0,1.783471E8,4.0290656E8,7.0738906E8,1.1924862E8,1.2181971E8,6.3293626E8,1.775479E8,3.878547E7,1.6320895E9,3.5541642E9,2.415488E7,5.0461978E8,8.125262E6,7.390774E7,1.151572E8,2.2803898E8,6.907195E8,4.3741824E7,2.5657358E8,1.0787533E8,0E0,0E0,0E0,0E0,0E0,0E0,0E0,0E0,0E0,0E0,0E0,0E0,0E0,0E0,0E0,0E0,0E0,0E0,0E0,0E0,0E0,0E0,0E0,0E0,0E0,0E0,0E0,0E0,0E0,0E0,0E0,0E0,0E0,0E0,0E0,0E0,0E0,0E0,0E0,0E0,0E0,0E0,0E0,0E0,0E0,0E0,0E0,0E0,0E0,0E0,0E0,0E0],"parents":[2147483647,0,0,1,1,2,2,3,3,4,4,5,5,6,6,7,7,8,8,9,9,10,10,11,11,12,12,13,13,14,14,15,15,16,16,18,18,19,19,20,20,21,21,22,22,23,23,24,24,25,25,26,26,27,27,28,28,29,29,30,30,31,31,32,32,33,33,34,34,35,35,36,36,41,41,42,42,43,43,44,44,45,45,46,46,47,47,48,48,49,49,50,50,51,51,52,52,53,53,54,54,55,55,56,56,57,57,58,58,59,59,60,60],"right_children":[2,4,6,8,10,12,14,16,18,20,22,24,26,28,30,32,34,-1,36,38,40,42,44,46,48,50,52,54,56,58,60,62,64,66,68,70,72,-1,-1,-1,-1,74,76,78,80,82,84,86,88,90,92,94,96,98,100,102,104,106,108,110,112,-1,-1,-1,-1,-1,-1,-1,-1,-1,-1,-1,-1,-1,-1,-1,-1,-1,-1,-1,-1,-1,-1,-1,-1,-1,-1,-1,-1,-1,-1,-1,-1,-1,-1,-1,-1,-1,-1,-1,-1,-1,-1,-1,-1,-1,-1,-1,-1,-1,-1,-1,-1],"split_conditions":[3.269E3,3.5E0,1.5E0,8.04E0,2.95E1,5E-1,3.3E1,7.04E0,1.55E1,2.5E0,1.26E2,1.855E2,1.0865E1,1.54E0,1.845E2,5.5E0,2.0175E3,3.052425E3,9.195E0,5E-1,6.435E2,5E-1,7.455E0,5.5E0,5E-1,6.45E1,1.5E0,1.04595E4,2.0165E3,1.745E2,1.935E2,2.0175E3,1.15E1,4.5E0,7.45E1,5E-1,2E0,-2.0270133E3,-2.2724884E2,3.1181955E2,3.9795679E3,1.5E0,1.0365E1,7.045E0,7.9449997E0,1.8E0,4.035E0,6.5E0,5.165E0,5.15E1,8.45E1,2.013E3,2.0115E3,5.654E3,1.31375E4,3.29E0,2.5E0,1.9E0,7.32535E4,2.0185E3,2.0185E3,1.136112E3,-2.007088E2,4.6200937E2,1.2873425E2,7.025557E3,-1.4665713E3,1.1293446E3,1.709929E2,1.4934E3,-1.1274039E3,8.693857E2,-4.5104276E2,5.849438E2,-1.4548882E3,1.7792471E3,-2.4209386E2,1.3101714E3,7.2586147E3,-9.3891156E2,9.305738E2,-2.0040254E2,-5.419159E2,-1.5145271E2,7.8629584E0,-1.773873E2,-6.821761E2,-1.4634636E3,-2.2887508E2,6.44293E1,-8.719702E1,2.4169083E2,1.2386005E1,-1.3388899E2,-1.3889844E3,-1.2110603E3,3.3587239E3,-5.2820044E2,6.833643E0,2.0510366E3,6.17546E2,-1.15078415E2,3.6307812E2,1.21271286E2,-5.4467004E2,5.5249194E2,6.737393E1,2.4959802E3,1.1016588E3,-1.0155901E1,-8.78195E2,2.6868384E3,3.860795E2],"split_indices":[4,7,5,6,1,3,1,6,1,0,1,1,6,6,1,1,2,0,6,3,4,3,6,1,5,1,0,4,2,1,1,2,1,0,1,0,0,0,0,0,0,0,6,6,6,7,6,0,6,1,1,2,2,4,4,6,0,7,4,2,2,0,0,0,0,0,0,0,0,0,0,0,0,0,0,0,0,0,0,0,0,0,0,0,0,0,0,0,0,0,0,0,0,0,0,0,0,0,0,0,0,0,0,0,0,0,0,0,0,0,0,0,0],"split_type":[0,0,0,0,0,0,0,0,0,0,0,0,0,0,0,0,0,0,0,0,0,0,0,0,0,0,0,0,0,0,0,0,0,0,0,0,0,0,0,0,0,0,0,0,0,0,0,0,0,0,0,0,0,0,0,0,0,0,0,0,0,0,0,0,0,0,0,0,0,0,0,0,0,0,0,0,0,0,0,0,0,0,0,0,0,0,0,0,0,0,0,0,0,0,0,0,0,0,0,0,0,0,0,0,0,0,0,0,0,0,0,0,0],"sum_hessian":[7.7959E4,6.08E3,7.1879E4,5.98E3,1E2,6.9577E4,2.302E3,5.901E3,7.9E1,1.2E1,8.8E1,1.2427E4,5.715E4,5.57E2,1.745E3,5.561E3,3.4E2,1E0,7.8E1,2E0,1E1,6.3E1,2.5E1,1.2136E4,2.91E2,5.7128E4,2.2E1,4.3E1,5.14E2,1.274E3,4.71E2,2.74E2,5.287E3,3E0,3.37E2,5.9E1,1.9E1,1E0,1E0,1E0,9E0,2.8E1,3.5E1,8E0,1.7E1,4.52E2,1.1684E4,2.66E2,2.5E1,2.6477E4,3.0651E4,5E0,1.7E1,1E1,3.3E1,2.92E2,2.22E2,1.252E3,2.2E1,4.62E2,9E0,8E0,2.66E2,4.16E2,4.871E3,2E0,1E0,9.4E1,2.43E2,1E0,5.8E1,1E1,9E0,4E0,2.4E1,2E1,1.5E1,6E0,2E0,3E0,1.4E1,1.36E2,3.16E2,3.029E3,8.655E3,1.03E2,1.63E2,2.2E1,3E0,1.571E4,1.0767E4,8.367E3,2.2284E4,3E0,2E0,2E0,1.5E1,3E0,7E0,3E0,3E1,2.37E2,5.5E1,6.5E1,1.57E2,8.73E2,3.79E2,1.7E1,5E0,4.3E2,3.2E1,6E0,3E0],"tree_param":{"num_deleted":"0","num_feature":"9","num_nodes":"113","size_leaf_vector":"0"}},{"base_weights":[9.369044E1,3.6771717E1,3.11496E2,1.05398285E2,-4.5450732E2,6.005142E2,-1.6536874E2,4.951224E1,1.0491409E3,-1.3354523E2,-1.9453748E3,1.3792037E3,4.021974E2,-1.3223694E3,9.702665E1,1.3083456E2,-9.719402E2,2.7163738E3,-4.3096054E2,-1.6417433E2,3.990971E3,-1.6778212E3,-6.31911E3,7.1203046E2,2.400602E3,7.6775916E2,1.58811E2,-2.3723823E3,-7.8292255E2,4.016004E3,-3.416927E1,1.0130428E2,2.6066003E3,-7.444526E2,-2.1583713E3,2.071214E3,3.963846E3,-1.0295758E3,1.6015834E3,4.9601723E1,-7.981391E2,4.6311016E3,1.7913422E3,-2.4760164E3,-9.006025E2,-2.811111E3,-6.6850938E3,1.1996785E3,-4.5947705E2,3.6589082E3,1.8509976E3,5.546685E2,4.8998135E3,-9.336493E2,3.4928668E2,-1.9104912E3,-3.274022E3,-5.138253E2,-9.827544E2,-2.6281758E3,8.0952354E3,-8.79315E2,1.9182047E2,2.308436E2,-1.7638231E2,4.0708342E3,1.4677406E3,-1.7355897E3,-3.7881787E2,-2.088732E3,-4.0021821E3,2.794619E3,7.581844E2,5.3807734E3,2.9925298E3,-4.2567206E2,-2.916113E3,2.3298577E3,-1.5975569E2,-2.003401E3,1.4177184E2,-1.6886786E3,-5.1414624E2,4.0974614E3,6.180312E3,6.878213E2,2.0827578E3,-3.332393E3,-6.965524E2,-1.063017E3,6.47238E3,8.8895154E2,3.3247683E3,9.117994E2,-1.3820374E3,9.446006E2,4.15502E3,2.8797773E3,1.2354757E3,3.3978702E2,1.9021235E3,8.7091046E2,7.2513833E3,-1.3752144E3,8.6049324E1,5.955966E2,-2.807836E2,-2.0414584E3,-8.6018866E2,-1.19492676E2,-3.455528E3,-1.5351283E2,-6.4349786E2,-1.1547341E3,-1.6019975E2,-7.9230645E3,-1.1989412E3,9.20783E3,6.588976E3,-7.5277026E2,-8.263953E3,1.2240967E3,-2.2070415E2],"categories":[],"categories_nodes":[],"categories_segments":[],"categories_sizes":[],"default_left":[1,1,1,1,1,1,1,1,1,1,1,1,1,1,1,1,1,1,1,1,1,1,1,1,1,1,1,1,1,1,1,1,1,1,1,1,1,1,1,1,1,1,1,1,1,0,0,1,1,1,1,1,1,1,1,1,1,1,1,1,1,1,1,0,0,0,0,0,0,0,0,0,0,0,0,0,0,0,0,0,0,0,0,0,0,0,0,0,0,0,0,0,0,0,0,0,0,0,0,0,0,0,0,0,0,0,0,0,0,0,0,0,0,0,0,0,0,0,0,0,0,0,0],"id":15,"left_children":[1,3,5,7,9,11,13,15,17,19,21,23,25,27,29,31,33,35,37,39,41,43,45,47,49,51,53,55,57,59,61,63,65,67,69,71,73,75,77,79,81,83,85,87,89,-1,-1,91,93,95,97,99,101,103,105,107,109,111,113,115,117,119,121,-1,-1,-1,-1,-1,-1,-1,-1,-1,-1,-1,-1,-1,-1,-1,-1,-1,-1,-1,-1,-1,-1,-1,-1,-1,-1,-1,-1,-1,-1,-1,-1,-1,-1,-1,-1,-1,-1,-1,-1,-1,-1,-1,-1,-1,-1,-1,-1,-1,-1,-1,-1,-1,-1,-1,-1,-1,-1,-1,-1],"loss_changes":[9.6647526E8,2.0839258E9,2.2262098E9,2.86036E9,3.6249467E9,1.5525202E9,1.8508232E9,4.2534003E9,7.4831575E9,7.883244E8,1.5598188E9,1.389129E9,7.131726E8,6.365047E8,2.5554819E9,3.4671987E9,1.01752934E9,1.1394621E9,1.9569047E9,8.3894854E8,5.647443E7,7.831611E8,8.006554E7,7.066574E8,5.506335E8,2.8184105E9,1.00205754E9,1.5283277E8,3.961056E7,4.3848827E9,9.188511E8,1.686017E9,9.261898E8,1.1481322E9,6.958054E7,8.9264154E8,6.513956E8,1.4137532E9,4.6985434E8,8.763981E8,3.9391936E8,3.611648E6,2.426432E6,9.4858726E8,7.768595E8,0E0,0E0,5.7350605E8,4.6175117E8,3.246459E8,3.5295437E8,8.818813E8,1.4811423E9,3.2205664E8,6.3645677E8,3.3320576E7,7.287539E7,1.4852464E7,6.021965E7,4.5969427E8,1.0691533E8,9.422833E8,1.6167562E9,0E0,0E0,0E0,0E0,0E0,0E0,0E0,0E0,0E0,0E0,0E0,0E0,0E0,0E0,0E0,0E0,0E0,0E0,0E0,0E0,0E0,0E0,0E0,0E0,0E0,0E0,0E0,0E0,0E0,0E0,0E0,0E0,0E0,0E0,0E0,0E0,0E0,0E0,0E0,0E0,0E0,0E0,0E0,0E0,0E0,0E0,0E0,0E0,0E0,0E0,0E0,0E0,0E0,0E0,0E0,0E0,0E0,0E0,0E0,0E0],"parents":[2147483647,0,0,1,1,2,2,3,3,4,4,5,5,6,6,7,7,8,8,9,9,10,10,11,11,12,12,13,13,14,14,15,15,16,16,17,17,18,18,19,19,20,20,21,21,22,22,23,